{"type":"LSTM","options":{"inputSize":6,"inputRange":6,"hiddenLayers":[20,20],"outputSize":6,"decayRate":0.999,"smoothEps":1e-8,"regc":0.000001,"clipval":5,"maxPredictionLength":100,"dataFormatter":{"values":["0","1","2"],"indexTable":{"0":0,"1":1,"2":2,"stop-input":3,"start-output":4,"unrecognized":5},"characterTable":{"0":"0","1":"1","2":"2","3":null,"4":null,"5":null},"characters":["0","1","2","stop-input","start-output","unrecognized"],"specialIndexes":[3,4,5]}},"input":{"rows":7,"columns":6,"weights":{"0":-1.8704631328582764,"1":-0.21332891285419464,"2":2.36491060256958,"3":-2.2686052322387695,"4":1.740478277206421,"5":-0.4890667498111725,"6":-1.5975894927978516,"7":1.189796805381775,"8":0.9464622735977173,"9":1.2570878267288208,"10":-3.1953608989715576,"11":0.4107547998428345,"12":-2.0095818042755127,"13":0.7395036220550537,"14":-0.00750716682523489,"15":1.054172158241272,"16":0.7385343313217163,"17":-2.057199716567993,"18":-3.434488534927368,"19":-2.385770320892334,"20":-9.063384056091309,"21":-2.5099613666534424,"22":-1.7752338647842407,"23":-0.8302079439163208,"24":0.3157428801059723,"25":-1.609399676322937,"26":2.011077880859375,"27":0.7827882766723633,"28":-1.0062816143035889,"29":0.740027666091919,"30":1.874818205833435,"31":-2.200840711593628,"32":-1.6316250562667847,"33":2.832102060317993,"34":-2.219517469406128,"35":-3.728311777114868,"36":0.006924040615558624,"37":0.001697969390079379,"38":-0.006980464793741703,"39":0.007211805321276188,"40":0.0005796815385110676,"41":-0.0020031179301440716}},"hiddenLayers":[{"inputMatrix":{"rows":20,"columns":6,"weights":{"0":-0.2072613537311554,"1":0.3614789545536041,"2":0.42924848198890686,"3":-0.002311357529833913,"4":-0.5393543839454651,"5":0.47640085220336914,"6":-0.253851056098938,"7":-0.28733015060424805,"8":-0.17120477557182312,"9":0.27440139651298523,"10":-0.15137815475463867,"11":-0.3002418875694275,"12":-0.35037678480148315,"13":0.4259793758392334,"14":-0.1586015224456787,"15":0.1296452432870865,"16":-0.457383930683136,"17":0.22249972820281982,"18":0.15187598764896393,"19":-0.26984110474586487,"20":-1.1502376794815063,"21":0.48142209649086,"22":-0.15213967859745026,"23":-1.0601531267166138,"24":-1.1870038509368896,"25":0.8973408341407776,"26":-0.04649141803383827,"27":-0.9519243240356445,"28":0.333037406206131,"29":0.5659003853797913,"30":0.1982036530971527,"31":0.149089515209198,"32":-0.6134905219078064,"33":0.16981524229049683,"34":-0.8540204763412476,"35":0.12989495694637299,"36":0.4221764802932739,"37":-0.19608686864376068,"38":-0.6725589036941528,"39":0.7723215222358704,"40":-0.6637408137321472,"41":-0.8585776686668396,"42":-0.2822103202342987,"43":0.1774640828371048,"44":-2.0953633785247803,"45":0.4452436864376068,"46":0.05363420024514198,"47":-0.11952146142721176,"48":-0.14151646196842194,"49":0.41899657249450684,"50":-0.37656429409980774,"51":0.1701863706111908,"52":-0.4529920518398285,"53":0.1857120394706726,"54":-0.3312437832355499,"55":-0.15657688677310944,"56":1.772053599357605,"57":-0.20920924842357635,"58":-0.048283178359270096,"59":1.0961384773254395,"60":0.6329585909843445,"61":-0.20920588076114655,"62":-0.7427830100059509,"63":0.8396838307380676,"64":-0.4375845491886139,"65":-0.878932535648346,"66":-1.2742464542388916,"67":0.9336337447166443,"68":-0.36338338255882263,"69":-1.0536293983459473,"70":1.144653081893921,"71":0.011404674500226974,"72":-0.24130305647850037,"73":0.09791471064090729,"74":-0.3402639925479889,"75":0.19760486483573914,"76":-0.29051673412323,"77":0.01253650151193142,"78":-0.4964991509914398,"79":-0.25196340680122375,"80":-1.2825086116790771,"81":0.7172898054122925,"82":-1.2823842763900757,"83":-0.9710133671760559,"84":-0.0594857856631279,"85":-0.2599673569202423,"86":-0.44768425822257996,"87":-0.017807111144065857,"88":-0.29485729336738586,"89":0.1068461611866951,"90":0.18871015310287476,"91":0.028430284932255745,"92":-1.0584334135055542,"93":0.5638614296913147,"94":-0.2391563206911087,"95":-0.7642365097999573,"96":-0.5291332006454468,"97":0.026434440165758133,"98":-0.48049864172935486,"99":0.07236858457326889,"100":-0.3918949365615845,"101":-0.21683505177497864,"102":-0.7160678505897522,"103":-0.3067452609539032,"104":0.21444474160671234,"105":-0.5155425071716309,"106":0.4713398814201355,"107":-0.2001676857471466,"108":-0.721085250377655,"109":0.5441476106643677,"110":-0.3657899498939514,"111":-0.1332274079322815,"112":-0.1497672200202942,"113":0.4930788278579712,"114":-1.1394215822219849,"115":-0.5073912143707275,"116":0.4160432517528534,"117":-0.6351902484893799,"118":-0.13264690339565277,"119":0.3750278055667877}},"inputHidden":{"rows":20,"columns":20,"weights":{"0":0.6011407375335693,"1":-0.18454410135746002,"2":0.8193885087966919,"3":0.3422400951385498,"4":0.04056521877646446,"5":0.33028361201286316,"6":-0.6185499429702759,"7":0.9179746508598328,"8":0.8876892328262329,"9":0.7043070793151855,"10":-0.695042073726654,"11":0.21379530429840088,"12":0.37501034140586853,"13":1.1269826889038086,"14":0.9980829358100891,"15":-0.1625460684299469,"16":1.0039362907409668,"17":-0.7875805497169495,"18":-0.4530410170555115,"19":-0.6535159349441528,"20":0.2674153745174408,"21":-0.1149386465549469,"22":0.2623436152935028,"23":0.07017344236373901,"24":-0.1643662005662918,"25":0.11135432869195938,"26":0.1570163071155548,"27":-0.07301218062639236,"28":0.0259366724640131,"29":0.4518582820892334,"30":-0.03728028014302254,"31":0.47924450039863586,"32":0.0462590716779232,"33":0.46090686321258545,"34":-0.01363081019371748,"35":0.3209298849105835,"36":0.18014901876449585,"37":-0.8480517268180847,"38":-0.26426854729652405,"39":-0.581076443195343,"40":0.21525931358337402,"41":-0.12952356040477753,"42":0.3368111550807953,"43":0.31186893582344055,"44":-0.12675967812538147,"45":0.27442240715026855,"46":-0.08338669687509537,"47":-0.001360426307655871,"48":0.09901563823223114,"49":0.39619913697242737,"50":-0.22565500438213348,"51":0.6129294037818909,"52":0.1542491763830185,"53":0.5874404907226562,"54":0.02320045232772827,"55":0.2664090394973755,"56":0.21826665103435516,"57":-0.669468343257904,"58":-0.3197416365146637,"59":-0.40251997113227844,"60":0.17258717119693756,"61":-0.3911825120449066,"62":0.10405248403549194,"63":0.22774221003055573,"64":0.3422508239746094,"65":0.25514543056488037,"66":-0.2362063229084015,"67":-0.20478346943855286,"68":-0.00506016006693244,"69":-0.8164602518081665,"70":-0.22455449402332306,"71":0.08745502680540085,"72":0.12406177818775177,"73":0.002121016848832369,"74":0.31666651368141174,"75":-0.00808632466942072,"76":0.21032336354255676,"77":-0.7930024266242981,"78":0.05763104557991028,"79":-0.051838286221027374,"80":-0.2493630200624466,"81":-0.270486056804657,"82":0.029604807496070862,"83":-0.16452620923519135,"84":-0.12857022881507874,"85":-0.07179912179708481,"86":0.7487609386444092,"87":0.5333120226860046,"88":-0.07106506079435349,"89":-0.0071633486077189445,"90":0.3065272271633148,"91":0.009840866550803185,"92":0.04136481136083603,"93":-0.31178635358810425,"94":-0.05692531168460846,"95":0.021018140017986298,"96":0.22539372742176056,"97":-0.10509541630744934,"98":-0.8144033551216125,"99":-0.28518640995025635,"100":0.23522669076919556,"101":0.031991660594940186,"102":-0.07169989496469498,"103":0.25848138332366943,"104":-0.11773457378149033,"105":0.11476973444223404,"106":-0.22291865944862366,"107":-0.11360396444797516,"108":-0.1151140108704567,"109":0.1402847319841385,"110":-0.2743605077266693,"111":0.3350529074668884,"112":-0.02599053643643856,"113":0.09377939999103546,"114":-0.06125503033399582,"115":-0.06815342605113983,"116":-0.033029381185770035,"117":-0.4642711281776428,"118":-0.31367936730384827,"119":-0.3708805739879608,"120":0.16036294400691986,"121":-0.39163199067115784,"122":0.3078373968601227,"123":0.27777352929115295,"124":-0.004656846635043621,"125":0.27370771765708923,"126":-0.1712980419397354,"127":0.022293642163276672,"128":0.29198411107063293,"129":-0.20846423506736755,"130":-0.28629207611083984,"131":0.5233966112136841,"132":0.46524813771247864,"133":0.594361424446106,"134":0.3678596615791321,"135":0.33700689673423767,"136":0.3411285877227783,"137":-0.6049119830131531,"138":-0.3680839240550995,"139":-0.36857855319976807,"140":-0.09727868437767029,"141":0.4901057779788971,"142":-0.5789828300476074,"143":-0.38112664222717285,"144":-0.15479546785354614,"145":0.04418560117483139,"146":0.20926621556282043,"147":0.02735537476837635,"148":-0.3744807541370392,"149":0.13323089480400085,"150":0.43911921977996826,"151":0.827938437461853,"152":-0.566298246383667,"153":-0.14006203413009644,"154":-0.4531710743904114,"155":0.19684574007987976,"156":-0.4946594834327698,"157":-0.5509428381919861,"158":-0.2293824702501297,"159":0.361923485994339,"160":0.3887408375740051,"161":-0.14505159854888916,"162":0.23184515535831451,"163":0.218186154961586,"164":-0.16452644765377045,"165":0.3528209328651428,"166":-0.46128642559051514,"167":0.05117247998714447,"168":0.23057404160499573,"169":0.062008194625377655,"170":-0.36529436707496643,"171":0.6512846946716309,"172":0.18616609275341034,"173":0.5816280245780945,"174":0.3252188563346863,"175":0.27956295013427734,"176":0.20230720937252045,"177":-0.7018352150917053,"178":-0.36411669850349426,"179":-0.3468233048915863,"180":0.29216131567955017,"181":0.2435770332813263,"182":0.14883586764335632,"183":0.5631599426269531,"184":-0.3203390836715698,"185":0.06918036192655563,"186":-0.18898017704486847,"187":-0.10781018435955048,"188":-0.02138904668390751,"189":0.6428293585777283,"190":-0.38549667596817017,"191":-0.14433248341083527,"192":-0.26973941922187805,"193":-0.09632383286952972,"194":-0.4464085102081299,"195":-0.7113484144210815,"196":-0.2605138421058655,"197":0.28143712878227234,"198":0.5527855157852173,"199":0.7045775651931763,"200":0.24634608626365662,"201":-0.5345600247383118,"202":0.1914793998003006,"203":0.3536747694015503,"204":0.1911228895187378,"205":0.3080739378929138,"206":0.012995602563023567,"207":-0.08053503930568695,"208":0.0499657578766346,"209":-0.1144128069281578,"210":-0.23421704769134521,"211":0.7322962284088135,"212":0.25818443298339844,"213":0.6728997826576233,"214":0.3792828619480133,"215":0.12812387943267822,"216":0.2892809510231018,"217":-1.0576951503753662,"218":-0.5344891548156738,"219":-0.7798917889595032,"220":0.1507490873336792,"221":0.20469221472740173,"222":-0.38164061307907104,"223":-0.154180645942688,"224":0.31057968735694885,"225":0.08571513742208481,"226":0.0346749946475029,"227":0.3524061441421509,"228":-0.20755399763584137,"229":0.07684675604104996,"230":0.33314722776412964,"231":0.2757205665111542,"232":-0.04849905148148537,"233":-0.555566668510437,"234":-0.08758706599473953,"235":0.5912935733795166,"236":-0.253353476524353,"237":-0.04792128875851631,"238":-0.47934845089912415,"239":0.012258103117346764,"240":0.27856746315956116,"241":-0.11760149151086807,"242":0.17876730859279633,"243":0.0724693015217781,"244":-0.2574440538883209,"245":0.11273270100355148,"246":-0.26156172156333923,"247":-0.15501271188259125,"248":-0.05563345551490784,"249":0.09253572672605515,"250":-0.2078537493944168,"251":0.5274149775505066,"252":0.09868122637271881,"253":0.48087871074676514,"254":0.15394194424152374,"255":0.14857351779937744,"256":0.20036134123802185,"257":-0.5338749885559082,"258":-0.3940812051296234,"259":-0.3178640604019165,"260":0.513340175151825,"261":-0.11539389193058014,"262":0.4662187397480011,"263":0.9659779071807861,"264":-0.9399528503417969,"265":1.0219087600708008,"266":-1.2429633140563965,"267":0.07040787488222122,"268":0.654046356678009,"269":0.3265100419521332,"270":-1.092790126800537,"271":1.868404507637024,"272":0.6225609183311462,"273":1.1463738679885864,"274":0.6264767050743103,"275":0.745071530342102,"276":0.3889225423336029,"277":-2.696124315261841,"278":-1.230093240737915,"279":-0.9494126439094543,"280":0.2283015251159668,"281":-0.38232722878456116,"282":0.2500855624675751,"283":0.224496990442276,"284":-0.07063144445419312,"285":0.25199124217033386,"286":-0.21597667038440704,"287":-0.14374500513076782,"288":0.20238536596298218,"289":0.060240041464567184,"290":-0.28044021129608154,"291":0.39314672350883484,"292":0.3295915424823761,"293":0.622461199760437,"294":0.35817113518714905,"295":0.29135051369667053,"296":0.1709185540676117,"297":-0.564698338508606,"298":-0.26311424374580383,"299":-0.5340948700904846,"300":-0.0001994043996091932,"301":0.004753297660499811,"302":-0.0705152302980423,"303":-0.15494897961616516,"304":-0.2017914205789566,"305":0.028753289952874184,"306":-0.10964878648519516,"307":-0.01614532619714737,"308":0.016026919707655907,"309":0.11179734021425247,"310":0.15443533658981323,"311":0.36720460653305054,"312":-0.00033734599128365517,"313":-0.09300782531499863,"314":0.03014388307929039,"315":0.055826738476753235,"316":0.03247097134590149,"317":-0.24734702706336975,"318":-0.03176112845540047,"319":-0.012320439331233501,"320":0.17714181542396545,"321":-0.055158019065856934,"322":0.08159348368644714,"323":0.1726992279291153,"324":-0.1759205460548401,"325":0.12326811254024506,"326":0.07180209457874298,"327":0.00696469796821475,"328":-0.12869499623775482,"329":0.4434830844402313,"330":-0.09572134166955948,"331":0.46734747290611267,"332":-0.005882655270397663,"333":0.32936733961105347,"334":-0.021841982379555702,"335":0.17534184455871582,"336":0.07469461113214493,"337":-0.611404538154602,"338":-0.24498334527015686,"339":-0.33200129866600037,"340":0.12350893765687943,"341":0.2800496816635132,"342":-0.0911971777677536,"343":0.2728886008262634,"344":-0.8389747142791748,"345":0.007920886389911175,"346":-0.2621634602546692,"347":-0.18358223140239716,"348":-0.034100715070962906,"349":0.44854071736335754,"350":-0.2527737021446228,"351":0.34113553166389465,"352":-0.22856101393699646,"353":0.3356839418411255,"354":-0.04743018001317978,"355":0.06505808234214783,"356":-0.27485600113868713,"357":-0.20891115069389343,"358":-0.09326528757810593,"359":0.2251705378293991,"360":-0.12750837206840515,"361":0.38236141204833984,"362":-0.28965282440185547,"363":-0.2197953313589096,"364":-0.49379852414131165,"365":-0.09383776038885117,"366":0.7702593803405762,"367":0.06567271053791046,"368":-0.19600902497768402,"369":0.055672451853752136,"370":0.36120322346687317,"371":0.46089908480644226,"372":-0.35306984186172485,"373":-0.007821871899068356,"374":-0.08771532028913498,"375":-0.1048985943198204,"376":-0.35531437397003174,"377":-0.3319312632083893,"378":-0.25148069858551025,"379":0.08178842067718506,"380":-0.2589004337787628,"381":0.3104763627052307,"382":-0.0005742161883972585,"383":-0.522516131401062,"384":-0.7862897515296936,"385":-0.20617221295833588,"386":0.31067943572998047,"387":-0.05753425881266594,"388":0.03294824808835983,"389":0.3093671500682831,"390":0.7150970101356506,"391":0.423484206199646,"392":-0.31657788157463074,"393":-0.18738415837287903,"394":-0.21161259710788727,"395":0.012372429482638836,"396":-0.21737495064735413,"397":-0.2966380715370178,"398":-0.42431673407554626,"399":-0.1483289897441864}},"inputBias":{"rows":20,"columns":1,"weights":{"0":-0.204594224691391,"1":0.040291283279657364,"2":-0.06820861250162125,"3":0.16738881170749664,"4":0.5732640624046326,"5":-0.27938103675842285,"6":-0.05421653762459755,"7":-0.4244867265224457,"8":-0.08471280336380005,"9":0.14900928735733032,"10":-0.1380576491355896,"11":0.3567762076854706,"12":0.20799796283245087,"13":-0.05525835603475571,"14":-0.17573632299900055,"15":-0.17465868592262268,"16":-0.03488387167453766,"17":0.37992116808891296,"18":-0.23691244423389435,"19":0.43652036786079407}},"forgetMatrix":{"rows":20,"columns":6,"weights":{"0":0.056597430258989334,"1":-0.4067956805229187,"2":-0.26332271099090576,"3":0.45786741375923157,"4":-0.33116912841796875,"5":-0.27394524216651917,"6":-0.010512573644518852,"7":0.4801255762577057,"8":-0.13534441590309143,"9":-0.41449227929115295,"10":0.4027038514614105,"11":0.3673636317253113,"12":0.02119147591292858,"13":-0.09206055849790573,"14":-0.21412737667560577,"15":-0.07540252804756165,"16":0.14537540078163147,"17":-0.18737569451332092,"18":0.037368591874837875,"19":0.5102176070213318,"20":0.39712366461753845,"21":-0.25980377197265625,"22":0.24434541165828705,"23":0.6179265379905701,"24":0.1383827179670334,"25":0.18152503669261932,"26":-0.216131329536438,"27":-0.045307621359825134,"28":-0.1832355260848999,"29":0.295917272567749,"30":-0.18303565680980682,"31":0.4669801890850067,"32":0.011998829431831837,"33":-0.3095622956752777,"34":0.2965288758277893,"35":0.26252129673957825,"36":-0.06662708520889282,"37":0.7463102340698242,"38":-0.13165423274040222,"39":-0.6226499080657959,"40":0.7071343064308167,"41":0.7177976369857788,"42":0.18764916062355042,"43":0.20844395458698273,"44":-0.6407558917999268,"45":0.16314268112182617,"46":-0.43495306372642517,"47":-0.17129918932914734,"48":0.1630086749792099,"49":-0.3371179401874542,"50":0.11519816517829895,"51":0.037706807255744934,"52":-0.0023274333216249943,"53":-0.1900874525308609,"54":-0.47339245676994324,"55":0.6816627383232117,"56":0.8915845155715942,"57":-0.2565463185310364,"58":-0.1884763389825821,"59":0.9817731976509094,"60":-0.3696954548358917,"61":0.8345122933387756,"62":0.024670861661434174,"63":-0.471326619386673,"64":0.4541497230529785,"65":0.738256573677063,"66":0.5797770619392395,"67":0.22284303605556488,"68":0.023556571453809738,"69":0.0910782441496849,"70":-0.2904668152332306,"71":-0.01498353760689497,"72":0.18740323185920715,"73":0.06431750953197479,"74":-0.16506816446781158,"75":-0.23487091064453125,"76":0.36117249727249146,"77":0.02864588424563408,"78":0.38310277462005615,"79":-0.7294120192527771,"80":0.24477840960025787,"81":0.7951980233192444,"82":-0.7127235531806946,"83":-0.47701454162597656,"84":0.1833014339208603,"85":-0.06726541370153427,"86":-0.3438713252544403,"87":-0.18348562717437744,"88":0.3389351963996887,"89":-0.4009445607662201,"90":-0.2725164294242859,"91":0.5280762910842896,"92":-0.226454496383667,"93":0.0005756731843575835,"94":-0.03986393287777901,"95":0.1706550121307373,"96":0.2645762264728546,"97":0.33415788412094116,"98":-0.05053885653614998,"99":-0.41822919249534607,"100":0.5319125652313232,"101":0.1874803751707077,"102":0.22688542306423187,"103":0.5557956099510193,"104":0.6942697167396545,"105":0.4125159680843353,"106":-0.37085118889808655,"107":0.3092450797557831,"108":-0.0798952579498291,"109":-0.267761766910553,"110":0.26860955357551575,"111":0.30780959129333496,"112":-0.11257975548505783,"113":-0.3854523301124573,"114":0.6501384377479553,"115":-0.7440697550773621,"116":0.48213574290275574,"117":0.14088906347751617,"118":0.177439883351326,"119":-0.5725967884063721}},"forgetHidden":{"rows":20,"columns":20,"weights":{"0":0.23520807921886444,"1":-0.08944166451692581,"2":0.3995150625705719,"3":-0.07957350462675095,"4":-0.18333591520786285,"5":0.13812491297721863,"6":-0.2932988405227661,"7":0.019950520247220993,"8":0.44758301973342896,"9":0.031339120119810104,"10":-0.08339348435401917,"11":0.01727137714624405,"12":0.18369248509407043,"13":0.22338862717151642,"14":0.25401073694229126,"15":-0.016567984595894814,"16":0.2876121699810028,"17":-0.36910995841026306,"18":-0.07831384986639023,"19":0.030994389206171036,"20":-0.0252350103110075,"21":-0.19202345609664917,"22":-0.08203036338090897,"23":0.15960462391376495,"24":0.3113097846508026,"25":0.09381602704524994,"26":-0.07021258771419525,"27":0.165599524974823,"28":0.10229883342981339,"29":-0.10081508755683899,"30":0.14072130620479584,"31":0.018299316987395287,"32":0.32706964015960693,"33":-0.21124432981014252,"34":0.04681903123855591,"35":0.2906794846057892,"36":0.10633587092161179,"37":0.10155197978019714,"38":-0.0740288645029068,"39":-0.07258237898349762,"40":0.1006566509604454,"41":-0.09394519031047821,"42":0.18563711643218994,"43":0.21323902904987335,"44":0.24330295622348785,"45":0.010717278346419334,"46":-0.2057139128446579,"47":0.14547137916088104,"48":0.2731918394565582,"49":-0.053845860064029694,"50":-0.06851938366889954,"51":-0.2677328586578369,"52":0.18889561295509338,"53":0.126654714345932,"54":0.2031727433204651,"55":0.08754223585128784,"56":0.18523992598056793,"57":0.18260392546653748,"58":0.31224149465560913,"59":0.2307094931602478,"60":-0.1686769276857376,"61":-0.037412893027067184,"62":-0.10423684865236282,"63":0.08887308835983276,"64":-0.05796465277671814,"65":-0.012106523849070072,"66":0.027337312698364258,"67":0.10321351140737534,"68":-0.13636407256126404,"69":0.1342194676399231,"70":0.14251480996608734,"71":-0.10912702232599258,"72":0.0038683738093823195,"73":-0.20760150253772736,"74":-0.1501023769378662,"75":-0.21211616694927216,"76":-0.11963865160942078,"77":0.07407734543085098,"78":0.19045138359069824,"79":0.0802757516503334,"80":-0.01091949362307787,"81":0.32050976157188416,"82":-0.3223159909248352,"83":-0.07993094623088837,"84":-0.2621159851551056,"85":-0.24309058487415314,"86":0.3276381194591522,"87":-0.3612322509288788,"88":-0.19798743724822998,"89":-0.11990634351968765,"90":0.15539751946926117,"91":0.12156305462121964,"92":-0.3460100591182709,"93":-0.2246733009815216,"94":-0.25394728779792786,"95":-0.005802393890917301,"96":-0.3749217987060547,"97":-0.28999215364456177,"98":0.4860523045063019,"99":0.6121737957000732,"100":-0.05605711415410042,"101":0.040857963263988495,"102":-0.022398000583052635,"103":0.03526085987687111,"104":-0.04958147183060646,"105":0.01429537683725357,"106":0.031170684844255447,"107":0.07237587869167328,"108":-0.025219224393367767,"109":0.16835178434848785,"110":0.27667319774627686,"111":0.229218989610672,"112":-0.025381240993738174,"113":-0.09751199930906296,"114":-0.047512687742710114,"115":0.06853705644607544,"116":-0.08698534965515137,"117":-0.12698675692081451,"118":0.11330066621303558,"119":0.08707784116268158,"120":-0.21077390015125275,"121":-0.14030760526657104,"122":-0.08419813215732574,"123":0.08783271908760071,"124":0.044373370707035065,"125":0.0011681612813845277,"126":0.1228739395737648,"127":0.0885462760925293,"128":-0.14943712949752808,"129":-0.1205761730670929,"130":0.09105920791625977,"131":0.05070905014872551,"132":-0.014059897512197495,"133":-0.12833069264888763,"134":0.0051927221938967705,"135":-0.03458937630057335,"136":-0.0026926533319056034,"137":0.052638888359069824,"138":-0.001250891829840839,"139":0.07347631454467773,"140":-0.059937089681625366,"141":-0.388312429189682,"142":0.16520722210407257,"143":0.022928444668650627,"144":0.11068611592054367,"145":0.17018885910511017,"146":-0.06638416647911072,"147":0.2238217294216156,"148":0.0988534614443779,"149":-0.2271219789981842,"150":0.01407859567552805,"151":-0.1958102285861969,"152":0.38163626194000244,"153":-0.15196038782596588,"154":0.1422073394060135,"155":-0.03726781904697418,"156":0.4371303617954254,"157":-0.12098700553178787,"158":-0.22047372162342072,"159":-0.07937977463006973,"160":0.2092704176902771,"161":-0.26960447430610657,"162":0.35322538018226624,"163":0.210328608751297,"164":0.20613409578800201,"165":0.26822853088378906,"166":-0.2474936693906784,"167":0.12744921445846558,"168":0.26252877712249756,"169":-0.024408794939517975,"170":-0.3032848536968231,"171":-0.09619294852018356,"172":0.19475531578063965,"173":0.30679166316986084,"174":0.25359487533569336,"175":-0.08997159451246262,"176":0.3380894958972931,"177":-0.25375187397003174,"178":0.03799688071012497,"179":0.068963922560215,"180":-0.1441025733947754,"181":0.06096849963068962,"182":-0.007910134270787239,"183":-0.037473879754543304,"184":0.006942675448954105,"185":-0.11926492303609848,"186":0.1697138547897339,"187":0.4640694856643677,"188":0.04085098206996918,"189":0.33244478702545166,"190":0.2318432778120041,"191":0.12053507566452026,"192":-0.048771608620882034,"193":-0.15985997021198273,"194":-0.17378681898117065,"195":-0.1718769073486328,"196":-0.055816516280174255,"197":0.04846745729446411,"198":-0.1948515772819519,"199":-0.15592332184314728,"200":-0.12615834176540375,"201":-0.02926717884838581,"202":-0.15250109136104584,"203":0.05750761181116104,"204":-0.08499262481927872,"205":-0.11312523484230042,"206":0.03525850549340248,"207":0.09038218855857849,"208":-0.09415584057569504,"209":-0.09449531137943268,"210":0.25983789563179016,"211":0.29297903180122375,"212":0.026982448995113373,"213":-0.24457691609859467,"214":-0.08943437039852142,"215":0.03668728470802307,"216":-0.13156451284885406,"217":-0.17342086136341095,"218":0.11213190853595734,"219":-0.0753345862030983,"220":0.09110894799232483,"221":-0.7424015998840332,"222":0.2157999724149704,"223":-0.21816717088222504,"224":0.6101373434066772,"225":0.30920344591140747,"226":-0.11960691958665848,"227":0.8861485719680786,"228":0.20532332360744476,"229":-0.5129699110984802,"230":-0.07105614244937897,"231":-0.1545819789171219,"232":0.6794704794883728,"233":-0.5832778215408325,"234":0.3994956612586975,"235":-0.001438678940758109,"236":0.7616803646087646,"237":-0.3140380382537842,"238":-0.581123411655426,"239":-0.8711276650428772,"240":-0.02001178078353405,"241":-0.15469837188720703,"242":0.158782497048378,"243":0.13851404190063477,"244":0.21887513995170593,"245":-0.03269760310649872,"246":-0.056340157985687256,"247":0.1373143494129181,"248":-0.035112086683511734,"249":-0.28769537806510925,"250":0.054632049053907394,"251":-0.1478893756866455,"252":0.13680635392665863,"253":0.017330095171928406,"254":0.15919654071331024,"255":0.06613782048225403,"256":0.2775386571884155,"257":0.0418887697160244,"258":-0.0007442485657520592,"259":0.19422347843647003,"260":0.3241410553455353,"261":-0.32569536566734314,"262":0.7971805930137634,"263":-0.25041449069976807,"264":-0.3982350528240204,"265":0.26472175121307373,"266":-0.19381646811962128,"267":0.5886290073394775,"268":0.6491265892982483,"269":0.3000381886959076,"270":-0.09343161433935165,"271":-0.06964515149593353,"272":0.39012548327445984,"273":0.43995803594589233,"274":0.5994131565093994,"275":-0.11010707914829254,"276":0.7496593594551086,"277":-0.6911413073539734,"278":-0.6693732142448425,"279":-0.5272455215454102,"280":0.16149082779884338,"281":-0.15453128516674042,"282":0.11087388545274734,"283":0.25594085454940796,"284":0.38501402735710144,"285":0.20641738176345825,"286":-0.21500134468078613,"287":0.4812520146369934,"288":0.18108537793159485,"289":-0.31710928678512573,"290":-0.34516993165016174,"291":-0.3538135290145874,"292":0.18366961181163788,"293":0.21776719391345978,"294":0.35509487986564636,"295":0.011222068220376968,"296":0.1522720903158188,"297":0.22109454870224,"298":0.22807425260543823,"299":0.4067631959915161,"300":-0.0661546140909195,"301":-0.1894150674343109,"302":0.07212111353874207,"303":0.02946062572300434,"304":0.07244784384965897,"305":0.11464313417673111,"306":0.06269121915102005,"307":0.347783625125885,"308":0.055353034287691116,"309":-0.06709074229001999,"310":0.06904882192611694,"311":-0.09274395555257797,"312":0.19211402535438538,"313":-0.12406440079212189,"314":0.04398582875728607,"315":-0.14960379898548126,"316":0.19841235876083374,"317":-0.10283059626817703,"318":-0.025184884667396545,"319":-0.19504229724407196,"320":0.028214873746037483,"321":-0.15896449983119965,"322":0.08528761565685272,"323":0.1594483107328415,"324":0.2785883843898773,"325":0.015625571832060814,"326":-0.025814689695835114,"327":0.04065864160656929,"328":0.13388144969940186,"329":-0.12158145010471344,"330":0.048326730728149414,"331":-0.13537128269672394,"332":0.2999952733516693,"333":-0.11031770706176758,"334":0.039099667221307755,"335":0.24335423111915588,"336":0.15212130546569824,"337":0.22815197706222534,"338":0.0740199163556099,"339":-0.008041182532906532,"340":-0.10827235877513885,"341":0.011272740550339222,"342":0.012531022541224957,"343":-0.11837684363126755,"344":0.3451954126358032,"345":-0.0994550809264183,"346":0.12659423053264618,"347":0.06901803612709045,"348":-0.023290276527404785,"349":-0.0009105488425120711,"350":0.1704910546541214,"351":0.12416587769985199,"352":-0.08359537273645401,"353":-0.16172035038471222,"354":-0.32044437527656555,"355":0.10555652529001236,"356":-0.0221139807254076,"357":-0.008943315595388412,"358":0.026652803644537926,"359":-0.13964928686618805,"360":-0.032275695353746414,"361":-0.16478562355041504,"362":0.09462461620569229,"363":0.013269259594380856,"364":-0.13148614764213562,"365":0.19864879548549652,"366":0.02243562787771225,"367":0.2817193567752838,"368":0.13766971230506897,"369":0.19954630732536316,"370":-0.18585214018821716,"371":0.019932353869080544,"372":0.1325121372938156,"373":0.10363584756851196,"374":0.21154750883579254,"375":0.07990428060293198,"376":0.14887475967407227,"377":-0.03166665881872177,"378":-0.30217090249061584,"379":-0.261359840631485,"380":-0.07219816744327545,"381":0.0024812626652419567,"382":-0.15565745532512665,"383":0.18589968979358673,"384":-0.10247316211462021,"385":0.16586460173130035,"386":-0.03296137601137161,"387":0.3630387783050537,"388":-0.07220879197120667,"389":0.20817436277866364,"390":-0.003988348413258791,"391":-0.03289252147078514,"392":-0.059830598533153534,"393":-0.1844618320465088,"394":0.012110957875847816,"395":-0.15875451266765594,"396":-0.021826211363077164,"397":-0.002489112550392747,"398":-0.12892527878284454,"399":-0.1598573625087738}},"forgetBias":{"rows":20,"columns":1,"weights":{"0":0,"1":0,"2":0,"3":0,"4":0,"5":0,"6":0,"7":0,"8":0,"9":0,"10":0,"11":0,"12":0,"13":0,"14":0,"15":0,"16":0,"17":0,"18":0,"19":0}},"outputMatrix":{"rows":20,"columns":6,"weights":{"0":0.20019879937171936,"1":0.1433800458908081,"2":0.11802869290113449,"3":0.4790343642234802,"4":-0.96324622631073,"5":0.13357433676719666,"6":-1.284622311592102,"7":-0.15784750878810883,"8":0.24264761805534363,"9":-0.7379642128944397,"10":0.6239204406738281,"11":0.2983018457889557,"12":-0.7116609811782837,"13":0.9143258333206177,"14":0.22306515276432037,"15":-0.19940829277038574,"16":-0.19016537070274353,"17":0.40136322379112244,"18":1.3083363771438599,"19":0.5996566414833069,"20":-0.3986667990684509,"21":1.1076737642288208,"22":0.35392677783966064,"23":-1.4379034042358398,"24":-0.69324791431427,"25":1.9590060710906982,"26":0.8264296054840088,"27":-0.9301855564117432,"28":0.208160862326622,"29":0.8005858063697815,"30":-0.8068112134933472,"31":1.1329715251922607,"32":-0.45282694697380066,"33":-0.561441957950592,"34":0.0035084777045994997,"35":0.6661792993545532,"36":0.7114958763122559,"37":-0.15375454723834991,"38":-1.069771647453308,"39":0.6303812861442566,"40":-0.5467017292976379,"41":-0.8437860012054443,"42":-1.5068624019622803,"43":0.30886590480804443,"44":-0.3485923409461975,"45":-1.332247257232666,"46":1.182307243347168,"47":0.3370553255081177,"48":-0.7033861875534058,"49":0.8487536311149597,"50":0.42536482214927673,"51":-0.4082215428352356,"52":-0.17942050099372864,"53":0.7391058802604675,"54":0.5539565682411194,"55":0.4707888960838318,"56":-0.18667571246623993,"57":0.42488864064216614,"58":-1.1447819471359253,"59":1.8829832077026367,"60":1.5721402168273926,"61":-0.026092419400811195,"62":-0.2810716927051544,"63":1.0101549625396729,"64":-0.0799315795302391,"65":-0.9572035670280457,"66":-0.8512220978736877,"67":-0.4182407557964325,"68":-0.01090113166719675,"69":-0.7391605377197266,"70":0.7698015570640564,"71":-1.1235443353652954,"72":-0.9289098381996155,"73":1.2001415491104126,"74":-0.6112297177314758,"75":-0.6490774750709534,"76":-0.02684309333562851,"77":0.5261344313621521,"78":2.0779809951782227,"79":0.5567702054977417,"80":2.251349687576294,"81":2.63950777053833,"82":-0.8718200325965881,"83":-0.8320301175117493,"84":-0.5798580646514893,"85":0.1919585019350052,"86":-0.3088770806789398,"87":-0.4915505647659302,"88":-0.10425145924091339,"89":1.0976980924606323,"90":-0.6990061402320862,"91":1.0304269790649414,"92":-0.6455057263374329,"93":-0.3809790313243866,"94":0.42418694496154785,"95":-0.10796887427568436,"96":-1.2225651741027832,"97":0.5601437091827393,"98":0.2712417542934418,"99":-0.6478498578071594,"100":0.2765657603740692,"101":0.33251872658729553,"102":-1.216873049736023,"103":0.49021100997924805,"104":0.18284441530704498,"105":-0.7272389531135559,"106":0.38329046964645386,"107":0.40659424662590027,"108":-0.8596780300140381,"109":0.9445679783821106,"110":-0.9664162993431091,"111":0.2308511883020401,"112":-0.17294348776340485,"113":0.7689534425735474,"114":-1.4701505899429321,"115":0.6955259442329407,"116":0.03329183906316757,"117":-0.8982988595962524,"118":0.3604191839694977,"119":0.1895415186882019}},"outputHidden":{"rows":20,"columns":20,"weights":{"0":0.07496870309114456,"1":-0.5953467488288879,"2":0.48109889030456543,"3":0.3804696798324585,"4":0.08206512033939362,"5":0.3197537362575531,"6":-0.16418854892253876,"7":0.8770154714584351,"8":0.40021732449531555,"9":0.16652388870716095,"10":-0.15229682624340057,"11":0.26328036189079285,"12":0.3326036334037781,"13":0.39345312118530273,"14":0.5621721148490906,"15":-0.16726535558700562,"16":0.6253888607025146,"17":-0.5773248672485352,"18":-0.608269453048706,"19":-0.9256207346916199,"20":0.047186464071273804,"21":-0.722781240940094,"22":0.226730078458786,"23":0.033635593950748444,"24":-0.3284642994403839,"25":0.41323593258857727,"26":0.24220843613147736,"27":0.40445342659950256,"28":0.00578050222247839,"29":0.7412058115005493,"30":0.15340149402618408,"31":0.4468064308166504,"32":0.4502711892127991,"33":0.2220977544784546,"34":0.04500788077712059,"35":0.3540218472480774,"36":0.42001986503601074,"37":-0.7233952283859253,"38":-0.6512359380722046,"39":-0.8189612627029419,"40":0.12610535323619843,"41":-0.34781134128570557,"42":0.3115975558757782,"43":0.41842466592788696,"44":-0.12650011479854584,"45":0.44932761788368225,"46":-0.11761124432086945,"47":0.19441954791545868,"48":0.16282229125499725,"49":0.41864633560180664,"50":-0.24005025625228882,"51":0.5121924877166748,"52":0.3067770302295685,"53":0.46234196424484253,"54":0.051035623997449875,"55":0.2096254825592041,"56":0.2432393729686737,"57":-0.5498014688491821,"58":-0.3384111523628235,"59":-0.41972842812538147,"60":0.1509132981300354,"61":-0.6294978260993958,"62":0.1828959733247757,"63":0.36493703722953796,"64":0.6101919412612915,"65":0.46015000343322754,"66":-0.3689483404159546,"67":0.09713392704725266,"68":0.08995620906352997,"69":-0.5502118468284607,"70":-0.27647024393081665,"71":0.4461875855922699,"72":0.6427836418151855,"73":-0.12216877937316895,"74":0.39609986543655396,"75":0.30706411600112915,"76":0.44396132230758667,"77":-0.6702965497970581,"78":-0.07456130534410477,"79":-0.22066868841648102,"80":-0.00929395854473114,"81":-0.7607158422470093,"82":0.06503823399543762,"83":-0.29228273034095764,"84":0.5241222381591797,"85":0.8329204320907593,"86":0.21151967346668243,"87":0.894972562789917,"88":-0.08812550455331802,"89":0.19930388033390045,"90":0.3890836238861084,"91":-0.033007849007844925,"92":0.4328020215034485,"93":-0.30429524183273315,"94":0.44505900144577026,"95":0.2637544870376587,"96":0.46114176511764526,"97":-0.25102800130844116,"98":-0.5935750603675842,"99":-0.43794479966163635,"100":-0.12617087364196777,"101":-0.12642773985862732,"102":-0.2772371172904968,"103":0.17612557113170624,"104":0.18323229253292084,"105":0.17982815206050873,"106":0.04677003622055054,"107":0.07748328149318695,"108":-0.3937957286834717,"109":0.020271889865398407,"110":-0.000923684099689126,"111":0.4720243215560913,"112":-0.15511822700500488,"113":0.0784640908241272,"114":0.04069063812494278,"115":0.2561001181602478,"116":0.01345095969736576,"117":-0.3011266589164734,"118":-0.4263800084590912,"119":-0.6033937335014343,"120":0.017880260944366455,"121":-0.5752981305122375,"122":0.5433905720710754,"123":0.33073723316192627,"124":0.16396473348140717,"125":0.3356017470359802,"126":-0.14097929000854492,"127":0.32697030901908875,"128":0.5274530053138733,"129":-0.5302756428718567,"130":-0.3064005672931671,"131":0.4833473265171051,"132":0.6059413552284241,"133":0.7368797659873962,"134":0.675391435623169,"135":0.41640040278434753,"136":0.5603079199790955,"137":-0.8466306924819946,"138":-0.7019011378288269,"139":-0.8756847977638245,"140":-0.044242069125175476,"141":0.05271463096141815,"142":-0.5171450972557068,"143":-0.1435670256614685,"144":-0.5763922929763794,"145":0.12388679385185242,"146":0.17073486745357513,"147":0.7808708548545837,"148":-0.39377570152282715,"149":-0.03492714837193489,"150":0.23527133464813232,"151":0.4172109067440033,"152":-0.15717355906963348,"153":-0.6768113970756531,"154":-0.049736570566892624,"155":-0.08670030534267426,"156":0.009938858449459076,"157":-0.29463744163513184,"158":-0.10254492610692978,"159":0.008613944984972477,"160":0.19271819293498993,"161":-0.4517880082130432,"162":0.2082459032535553,"163":0.28140121698379517,"164":-0.11602699756622314,"165":0.44368526339530945,"166":-0.2579667866230011,"167":0.0047966004349291325,"168":0.0989314615726471,"169":0.14157070219516754,"170":-0.2907513678073883,"171":0.3825862407684326,"172":0.18945461511611938,"173":0.5166003108024597,"174":0.26082944869995117,"175":0.18001200258731842,"176":0.1688406765460968,"177":-0.532062292098999,"178":-0.5133370757102966,"179":-0.5563412308692932,"180":-0.0549442432820797,"181":0.7052643299102783,"182":-0.25460654497146606,"183":0.0827726200222969,"184":-0.2069590538740158,"185":-0.34289640188217163,"186":0.2945888638496399,"187":-0.15717794001102448,"188":-0.23023658990859985,"189":-0.07335101813077927,"190":0.12201748043298721,"191":-0.5351386666297913,"192":-0.630242645740509,"193":-0.792887270450592,"194":-0.761363685131073,"195":-0.6285488605499268,"196":-0.7325187921524048,"197":1.1454170942306519,"198":0.8991749882698059,"199":1.2214787006378174,"200":0.10547739267349243,"201":-0.6707630157470703,"202":0.2776941657066345,"203":0.4688166677951813,"204":0.1504908949136734,"205":0.36376020312309265,"206":-0.33992674946784973,"207":0.16956815123558044,"208":0.04956706613302231,"209":-0.12626197934150696,"210":-0.30315065383911133,"211":0.20706158876419067,"212":0.3120293915271759,"213":0.5562028288841248,"214":0.8700485825538635,"215":-0.06793408840894699,"216":0.5010524988174438,"217":-0.6145841479301453,"218":-0.6708433628082275,"219":-0.6762421727180481,"220":0.2043461799621582,"221":-0.5751712322235107,"222":-0.5160251259803772,"223":-0.14798378944396973,"224":0.4273119270801544,"225":0.23601099848747253,"226":0.2230837643146515,"227":1.5971159934997559,"228":-0.36965417861938477,"229":-0.12203408777713776,"230":0.37303540110588074,"231":-0.26975706219673157,"232":0.44275355339050293,"233":-1.5876502990722656,"234":0.18142299354076385,"235":0.3014526069164276,"236":0.47444069385528564,"237":-0.30675065517425537,"238":-0.604030430316925,"239":-0.6515136957168579,"240":-0.08171059191226959,"241":-0.6548075675964355,"242":0.08061457425355911,"243":0.12342195212841034,"244":-0.16983440518379211,"245":0.33870989084243774,"246":-0.14150966703891754,"247":-0.055206529796123505,"248":-0.29632076621055603,"249":-0.0827333927154541,"250":-0.1323193460702896,"251":0.3327952027320862,"252":0.3102079927921295,"253":0.12380848079919815,"254":0.14026816189289093,"255":0.1988808661699295,"256":0.3021965026855469,"257":-0.05642763152718544,"258":-0.26594308018684387,"259":-0.26975226402282715,"260":0.40622836351394653,"261":0.2927079498767853,"262":0.15142039954662323,"263":0.36247164011001587,"264":-1.1350476741790771,"265":0.3964146375656128,"266":-0.4666159451007843,"267":0.16464990377426147,"268":0.24224746227264404,"269":0.4043677747249603,"270":-0.4391528069972992,"271":0.6648539900779724,"272":-0.03091374784708023,"273":0.3652074635028839,"274":0.08431065827608109,"275":-0.21476136147975922,"276":-0.018880236893892288,"277":-1.310713529586792,"278":-0.3209814131259918,"279":0.26269614696502686,"280":-0.019736051559448242,"281":-0.37419724464416504,"282":0.18823812901973724,"283":0.37172800302505493,"284":-0.32833290100097656,"285":0.23505719006061554,"286":-0.02743050828576088,"287":0.0415588803589344,"288":0.03215489909052849,"289":0.4434582591056824,"290":-0.10916397720575333,"291":0.6924291253089905,"292":0.196726456284523,"293":0.48872652649879456,"294":-0.016862748190760612,"295":0.3243464231491089,"296":0.11197379231452942,"297":-0.72298663854599,"298":-0.7223228216171265,"299":-0.6719855666160583,"300":-0.2638067305088043,"301":-0.2594929337501526,"302":-0.3104243278503418,"303":-0.14694547653198242,"304":-0.14700660109519958,"305":0.054200414568185806,"306":0.4952475130558014,"307":0.5665056705474854,"308":-0.3847765326499939,"309":0.12309432029724121,"310":0.501021683216095,"311":0.557252049446106,"312":-0.1474597305059433,"313":-0.8100385665893555,"314":-0.2073241025209427,"315":-0.15579095482826233,"316":-0.040130678564310074,"317":-0.1719808578491211,"318":-0.3593832552433014,"319":-0.19810573756694794,"320":-0.06554950773715973,"321":-0.4331483840942383,"322":0.09801958501338959,"323":0.17311494052410126,"324":-0.35740551352500916,"325":0.1920018494129181,"326":0.20782749354839325,"327":0.13711772859096527,"328":-0.3189619183540344,"329":0.6643137335777283,"330":0.0454571358859539,"331":0.7218025326728821,"332":0.13682928681373596,"333":0.19960474967956543,"334":-0.20820946991443634,"335":0.3465910851955414,"336":0.15571539103984833,"337":-0.55983966588974,"338":-0.4015693962574005,"339":-0.40338534116744995,"340":-0.23350772261619568,"341":-0.022545963525772095,"342":-0.06959851831197739,"343":0.0015504434704780579,"344":-0.8142215609550476,"345":0.14202365279197693,"346":0.25471556186676025,"347":0.004191973712295294,"348":-0.016777776181697845,"349":0.8517605066299438,"350":0.319852352142334,"351":1.1373142004013062,"352":-0.07963753491640091,"353":0.31425201892852783,"354":-0.07318060100078583,"355":0.589004635810852,"356":-0.07874257862567902,"357":-0.8058986067771912,"358":-0.8174440264701843,"359":-0.5369139909744263,"360":-0.20772308111190796,"361":0.3889588713645935,"362":-0.46540796756744385,"363":-0.5337306261062622,"364":-0.41782161593437195,"365":-0.07850312441587448,"366":0.6195263862609863,"367":0.1607162058353424,"368":-0.2701249122619629,"369":-0.04563816636800766,"370":0.8458540439605713,"371":0.6861578226089478,"372":-0.3015992343425751,"373":-0.12416202574968338,"374":-0.21948708593845367,"375":0.23439393937587738,"376":-0.355400949716568,"377":-0.624966561794281,"378":-0.29094353318214417,"379":-0.011407661251723766,"380":-0.23269318044185638,"381":-0.09842506796121597,"382":-0.03935809060931206,"383":-0.5811027884483337,"384":-0.8690500259399414,"385":0.23951320350170135,"386":0.5259004235267639,"387":0.29634180665016174,"388":-0.22513988614082336,"389":0.8149054646492004,"390":0.8852081298828125,"391":0.7912653684616089,"392":0.2897305488586426,"393":-0.5419056415557861,"394":0.2065652757883072,"395":0.1602243334054947,"396":0.0972483679652214,"397":-0.923466145992279,"398":-1.437354564666748,"399":-0.39927777647972107}},"outputBias":{"rows":20,"columns":1,"weights":{"0":-0.10021527856588364,"1":0.15381067991256714,"2":0.0561518631875515,"3":-0.11542109400033951,"4":0.740571141242981,"5":0.038896601647138596,"6":-0.028725996613502502,"7":0.3444208800792694,"8":-0.015256320126354694,"9":-0.4513505697250366,"10":-0.18603000044822693,"11":0.35511207580566406,"12":0.23583269119262695,"13":-0.05596023052930832,"14":-0.41769227385520935,"15":-0.10133244097232819,"16":0.07218395173549652,"17":0.4216693937778473,"18":-0.4911661446094513,"19":0.2875026762485504}},"cellActivationMatrix":{"rows":20,"columns":6,"weights":{"0":0.28021660447120667,"1":-0.17726783454418182,"2":0.8186750411987305,"3":0.40295788645744324,"4":-0.47281551361083984,"5":0.515594482421875,"6":-0.046816159039735794,"7":-0.6679689884185791,"8":-0.4620007276535034,"9":-0.5605363845825195,"10":-0.07961846143007278,"11":0.24434833228588104,"12":0.20441162586212158,"13":-0.05408714339137077,"14":0.6189908385276794,"15":0.14158987998962402,"16":-0.46663013100624084,"17":0.3803917467594147,"18":-0.8255982398986816,"19":0.4154072701931,"20":0.07272384315729141,"21":-0.45290109515190125,"22":0.46266114711761475,"23":0.2125115692615509,"24":0.29329654574394226,"25":-0.1684330254793167,"26":-0.3061389625072479,"27":0.5942354202270508,"28":-0.2942999303340912,"29":-0.2253430187702179,"30":0.05991369113326073,"31":0.20035050809383392,"32":0.3908059298992157,"33":0.3200037479400635,"34":-0.38787850737571716,"35":0.31361061334609985,"36":0.3990541100502014,"37":-0.24266117811203003,"38":-0.9277651309967041,"39":-0.0033566097263246775,"40":-0.07164227217435837,"41":-0.6197500228881836,"42":0.6689269542694092,"43":0.4380807876586914,"44":0.5474856495857239,"45":0.8714547753334045,"46":0.5041787028312683,"47":-0.7934057116508484,"48":-0.03735322877764702,"49":0.3104187846183777,"50":0.4963788092136383,"51":0.3853262662887573,"52":-0.3186178207397461,"53":0.6150929927825928,"54":-0.5615913271903992,"55":0.8440563082695007,"56":-0.39910629391670227,"57":-0.3765089809894562,"58":0.12794630229473114,"59":0.25275367498397827,"60":0.3079451322555542,"61":-0.4833909571170807,"62":-0.7864788174629211,"63":0.18215173482894897,"64":-0.3449589014053345,"65":-0.3629080355167389,"66":0.16136495769023895,"67":0.14711548388004303,"68":0.6919060945510864,"69":-0.5374569296836853,"70":0.22411617636680603,"71":0.2014959305524826,"72":0.06812847405672073,"73":0.6857591271400452,"74":0.3589000701904297,"75":0.31805160641670227,"76":-0.10626436769962311,"77":-0.18361549079418182,"78":-0.13734103739261627,"79":0.3096289038658142,"80":1.3306306600570679,"81":0.11032485216856003,"82":-0.5674178600311279,"83":1.2747684717178345,"84":0.08191969245672226,"85":0.07941295206546783,"86":0.6727394461631775,"87":0.37867602705955505,"88":-0.30472785234451294,"89":0.31373533606529236,"90":0.4099114239215851,"91":0.21246057748794556,"92":0.08077014237642288,"93":0.11037332564592361,"94":-0.2643786370754242,"95":0.21897320449352264,"96":0.3189747929573059,"97":0.11503392457962036,"98":0.9104564785957336,"99":0.7263258099555969,"100":-0.08616697043180466,"101":-0.25450417399406433,"102":0.09036801755428314,"103":-0.4696231782436371,"104":-1.155131220817566,"105":-0.04135361313819885,"106":0.04833189398050308,"107":-0.16654670238494873,"108":-0.2788456380367279,"109":-0.542230486869812,"110":-0.5389081835746765,"111":-0.6614876985549927,"112":0.05751713737845421,"113":0.09312625229358673,"114":-0.6691856980323792,"115":-0.9591755270957947,"116":-0.2039216011762619,"117":-0.937102735042572,"118":0.17975245416164398,"119":0.24771185219287872}},"cellActivationHidden":{"rows":20,"columns":20,"weights":{"0":-0.38462385535240173,"1":-0.3002473711967468,"2":-0.3000226616859436,"3":0.01036932785063982,"4":-0.3660988211631775,"5":-0.022266799584031105,"6":0.4271634519100189,"7":0.1157761737704277,"8":-0.36331236362457275,"9":-0.14141970872879028,"10":0.36670246720314026,"11":0.05941236764192581,"12":-0.03682766482234001,"13":-0.5121429562568665,"14":-0.4409169554710388,"15":-0.2660359740257263,"16":-0.26261106133461,"17":-0.1590803563594818,"18":-0.23322421312332153,"19":-0.3019498288631439,"20":0.07789955288171768,"21":-0.3883747458457947,"22":0.4243845045566559,"23":0.03431104123592377,"24":0.2318069338798523,"25":0.12377054989337921,"26":-0.3472019135951996,"27":-0.7257177233695984,"28":0.26740798354148865,"29":-0.19937264919281006,"30":-0.2620028555393219,"31":0.12183733284473419,"32":0.3077823519706726,"33":0.5316544771194458,"34":0.20991705358028412,"35":0.37007272243499756,"36":0.35097646713256836,"37":-0.30383023619651794,"38":0.005808169022202492,"39":-0.2249232530593872,"40":-0.14577533304691315,"41":0.243644118309021,"42":-0.040254026651382446,"43":0.12546847760677338,"44":-0.16700339317321777,"45":-0.07888173311948776,"46":0.2400982528924942,"47":0.2796582877635956,"48":-0.08322484791278839,"49":0.3875669836997986,"50":0.130178764462471,"51":0.16361619532108307,"52":-0.2730773985385895,"53":-0.06487922370433807,"54":-0.38128745555877686,"55":-0.16996581852436066,"56":-0.312388151884079,"57":-0.2107245773077011,"58":-0.05509737879037857,"59":-0.0063145896419882774,"60":0.10681416839361191,"61":0.17054122686386108,"62":-0.13769525289535522,"63":-0.005909140221774578,"64":-0.1435536891222,"65":0.06929144263267517,"66":0.006429187022149563,"67":-0.14542506635189056,"68":0.08744525909423828,"69":0.2529686689376831,"70":0.1333886831998825,"71":0.2877190113067627,"72":0.13628749549388885,"73":0.035622723400592804,"74":-0.023782894015312195,"75":0.1296875774860382,"76":-0.15434040129184723,"77":-0.11919321864843369,"78":0.18088887631893158,"79":0.05061723291873932,"80":-0.2916485667228699,"81":-0.284567654132843,"82":0.06714263558387756,"83":-0.4791853129863739,"84":0.21536624431610107,"85":-0.3265226185321808,"86":0.6604797840118408,"87":0.23761634528636932,"88":0.031842343509197235,"89":-0.19511725008487701,"90":0.7278072237968445,"91":-0.4842381775379181,"92":0.10036241263151169,"93":-0.5305753350257874,"94":-0.32678720355033875,"95":0.11812013387680054,"96":0.26889777183532715,"97":0.6046522259712219,"98":0.009393925778567791,"99":-0.44638246297836304,"100":-0.034893013536930084,"101":0.00168099463917315,"102":0.006986165419220924,"103":-0.05686080455780029,"104":-0.08835485577583313,"105":-0.030893364921212196,"106":-0.03801701217889786,"107":0.39954960346221924,"108":0.037190284579992294,"109":0.220999076962471,"110":-0.05623779818415642,"111":-0.11280849575996399,"112":0.06881284713745117,"113":-0.11421358585357666,"114":0.08612348139286041,"115":-0.28021010756492615,"116":-0.0540226548910141,"117":0.22310392558574677,"118":-0.13603633642196655,"119":-0.21337120234966278,"120":-0.07412812113761902,"121":-0.30864614248275757,"122":0.11724206805229187,"123":-0.019646700471639633,"124":0.3995358347892761,"125":0.052678465843200684,"126":-0.12451837956905365,"127":-0.04536410793662071,"128":0.07607828825712204,"129":-0.6397104859352112,"130":-0.2050924003124237,"131":-0.16285742819309235,"132":0.06414718925952911,"133":0.04758511856198311,"134":0.20982249081134796,"135":0.321438729763031,"136":0.23655498027801514,"137":0.18828633427619934,"138":0.08696289360523224,"139":0.029443450272083282,"140":-0.07129259407520294,"141":0.02941211313009262,"142":-0.05432254076004028,"143":-0.09347034990787506,"144":0.30305248498916626,"145":0.03276176005601883,"146":0.22938311100006104,"147":0.21226488053798676,"148":0.04690852388739586,"149":-0.191130593419075,"150":0.2615293264389038,"151":-0.08323740214109421,"152":-0.2675451934337616,"153":-0.15731927752494812,"154":-0.00915976706892252,"155":-0.13969725370407104,"156":-0.060294076800346375,"157":0.1275528073310852,"158":0.25560247898101807,"159":0.4446568787097931,"160":0.01498129591345787,"161":0.16536247730255127,"162":-0.03209003806114197,"163":0.032847438007593155,"164":-0.1272916942834854,"165":0.0025411820970475674,"166":0.13919886946678162,"167":0.2687404155731201,"168":0.019053395837545395,"169":0.34055009484291077,"170":-0.010296065360307693,"171":0.06135453283786774,"172":-0.20375917851924896,"173":-0.009618430398404598,"174":-0.15240716934204102,"175":-0.16464287042617798,"176":-0.17957843840122223,"177":-0.01891172304749489,"178":-0.1683603674173355,"179":-0.1676296591758728,"180":0.10036050528287888,"181":-0.17863567173480988,"182":-0.1247241273522377,"183":0.4008399248123169,"184":-0.11356160789728165,"185":0.2691829204559326,"186":-0.07553730905056,"187":0.16328522562980652,"188":-0.1822127103805542,"189":0.04226411134004593,"190":-0.32297641038894653,"191":0.6969355940818787,"192":0.13270686566829681,"193":0.3299667239189148,"194":0.1373002678155899,"195":0.28496500849723816,"196":0.1325778216123581,"197":-0.6202113628387451,"198":-0.0559675395488739,"199":-0.09396234899759293,"200":0.0032014776952564716,"201":0.036529477685689926,"202":-0.03880033269524574,"203":0.0665256455540657,"204":0.41123995184898376,"205":0.003785236505791545,"206":-0.0659850686788559,"207":-0.46209827065467834,"208":-0.034237902611494064,"209":-0.42625969648361206,"210":-0.09550616890192032,"211":-0.11475147306919098,"212":-0.06570949405431747,"213":-0.01899520307779312,"214":-0.06581044942140579,"215":0.0035537355579435825,"216":-0.11173941195011139,"217":0.19230379164218903,"218":0.46722766757011414,"219":0.3897034227848053,"220":0.2788187265396118,"221":-0.6351926326751709,"222":0.4650242328643799,"223":0.4667949974536896,"224":0.529882550239563,"225":0.26913559436798096,"226":-0.5635663866996765,"227":-0.06501572579145432,"228":0.31718409061431885,"229":0.2440921515226364,"230":-0.6031520366668701,"231":-0.38345199823379517,"232":0.4748830795288086,"233":0.3741573989391327,"234":0.30091074109077454,"235":-0.030163152143359184,"236":0.511094331741333,"237":0.22536927461624146,"238":-0.16177965700626373,"239":-0.5775183439254761,"240":-0.16346105933189392,"241":0.3240140974521637,"242":-0.1116529107093811,"243":-0.001503290724940598,"244":-0.18833643198013306,"245":0.013912835158407688,"246":0.2878584861755371,"247":0.3173046410083771,"248":-0.10894683748483658,"249":0.3639962375164032,"250":0.11742555350065231,"251":0.1315678358078003,"252":-0.29588380455970764,"253":-0.19849763810634613,"254":-0.3256174623966217,"255":-0.11667174100875854,"256":-0.3264882564544678,"257":-0.09117835015058517,"258":-0.13836820423603058,"259":-0.11423628777265549,"260":0.12241194397211075,"261":-0.02831999957561493,"262":0.022769272327423096,"263":-0.04202546924352646,"264":-0.3541494309902191,"265":0.027574950829148293,"266":0.20041006803512573,"267":0.07872521132230759,"268":-0.00989765115082264,"269":0.5085207223892212,"270":0.11275143921375275,"271":0.15854516625404358,"272":-0.08539323508739471,"273":0.08268168568611145,"274":-0.32706406712532043,"275":-0.15555518865585327,"276":-0.10676408559083939,"277":-0.22006218135356903,"278":-0.157973513007164,"279":-0.32498788833618164,"280":-0.04590775445103645,"281":0.12490285933017731,"282":-0.027952590957283974,"283":0.10487683117389679,"284":-0.11480028182268143,"285":-0.11972691118717194,"286":0.18812055885791779,"287":0.4026715159416199,"288":0.0605161152780056,"289":0.19966286420822144,"290":0.08712037652730942,"291":0.031422004103660583,"292":-0.12599141895771027,"293":0.03448296710848808,"294":-0.11610625684261322,"295":-0.13583429157733917,"296":-0.0750318095088005,"297":-0.04497049003839493,"298":-0.10000597685575485,"299":-0.08100010454654694,"300":0.11839665472507477,"301":-0.3016785979270935,"302":0.4047997295856476,"303":0.14896871149539948,"304":-0.1444445550441742,"305":0.15302497148513794,"306":-0.38536927103996277,"307":-0.26743122935295105,"308":0.3516065776348114,"309":0.12320280820131302,"310":-0.3316873610019684,"311":0.29372933506965637,"312":0.21821172535419464,"313":0.7873698472976685,"314":0.31554290652275085,"315":-0.11289326101541519,"316":0.3416477143764496,"317":-0.35398662090301514,"318":-0.15901918709278107,"319":-0.54178386926651,"320":-0.10782749205827713,"321":0.3457859456539154,"322":-0.23480217158794403,"323":-0.10099499672651291,"324":-0.4122084975242615,"325":-0.151402086019516,"326":0.45419570803642273,"327":0.39864614605903625,"328":-0.1910906881093979,"329":0.6439399123191833,"330":0.4455376863479614,"331":0.41039684414863586,"332":-0.29951733350753784,"333":-0.23809489607810974,"334":-0.30910325050354004,"335":-0.1571318507194519,"336":-0.2788577675819397,"337":-0.3068418800830841,"338":-0.19068072736263275,"339":-0.10812701284885406,"340":-0.1442750096321106,"341":0.159430593252182,"342":-0.08297581225633621,"343":0.22013770043849945,"344":-0.26861512660980225,"345":-0.00002677153861441184,"346":-0.05038607865571976,"347":-0.2592812478542328,"348":0.031559430062770844,"349":0.23031723499298096,"350":0.014607587829232216,"351":0.40048882365226746,"352":-0.09654142707586288,"353":0.14264605939388275,"354":0.0321725532412529,"355":0.2642028331756592,"356":-0.0626249760389328,"357":-0.4842402935028076,"358":0.07916268706321716,"359":0.40598103404045105,"360":0.304336279630661,"361":-0.32001155614852905,"362":0.29189375042915344,"363":0.41513651609420776,"364":0.28423041105270386,"365":0.3964102268218994,"366":-0.4872327744960785,"367":-0.19488419592380524,"368":0.2679726779460907,"369":0.007373080123215914,"370":-0.4595526158809662,"371":0.13609197735786438,"372":0.3168689012527466,"373":0.3865780234336853,"374":0.0962243378162384,"375":0.05710624158382416,"376":0.35501381754875183,"377":-0.1055382788181305,"378":0.2911055386066437,"379":0.11799082905054092,"380":0.251916766166687,"381":-0.5092340707778931,"382":0.5478440523147583,"383":0.21603216230869293,"384":0.5298795104026794,"385":0.2625075876712799,"386":-0.6151994466781616,"387":0.23726114630699158,"388":0.4042535424232483,"389":-0.019857484847307205,"390":-0.3320341110229492,"391":-0.09426192194223404,"392":0.5375188589096069,"393":0.35892006754875183,"394":0.4153605103492737,"395":-0.45741504430770874,"396":0.6134276390075684,"397":-0.37959766387939453,"398":0.21057693660259247,"399":-0.11716022342443466}},"cellActivationBias":{"rows":20,"columns":1,"weights":{"0":-0.053466375917196274,"1":0.42012104392051697,"2":-0.1973770558834076,"3":0.1100512221455574,"4":-0.46097734570503235,"5":-0.16767695546150208,"6":0.04576387628912926,"7":0.05002126842737198,"8":-0.12820769846439362,"9":0.23345538973808289,"10":-0.015940651297569275,"11":0.769575297832489,"12":-0.2896929681301117,"13":-0.025650691241025925,"14":-0.1146782711148262,"15":-0.1494724452495575,"16":-0.29333680868148804,"17":-0.6028411984443665,"18":-0.04151913896203041,"19":0.18111400306224823}}},{"inputMatrix":{"rows":20,"columns":20,"weights":{"0":-0.030813390389084816,"1":-0.6543518304824829,"2":0.283846378326416,"3":-2.369478940963745,"4":1.6876975297927856,"5":-0.18878723680973053,"6":2.126725435256958,"7":0.446171373128891,"8":0.09830380976200104,"9":-0.20389892160892487,"10":2.008096694946289,"11":-1.2076435089111328,"12":0.3859367370605469,"13":-0.6562404036521912,"14":0.09932585060596466,"15":0.2263723909854889,"16":0.423181414604187,"17":1.9463061094284058,"18":-0.4157135486602783,"19":-1.783473014831543,"20":0.0653308629989624,"21":-0.8666160106658936,"22":0.6647347807884216,"23":0.23451143503189087,"24":0.9834193587303162,"25":0.13526016473770142,"26":-0.562438428401947,"27":0.649942934513092,"28":0.36444440484046936,"29":0.3859970271587372,"30":-0.6777048707008362,"31":-0.6502869725227356,"32":0.4082021117210388,"33":0.4984601140022278,"34":0.1307656168937683,"35":0.10670291632413864,"36":0.6395925879478455,"37":0.38443857431411743,"38":-0.700226366519928,"39":-1.4539246559143066,"40":-0.06893450766801834,"41":-1.0855716466903687,"42":0.11332347244024277,"43":0.8075634241104126,"44":0.8176525831222534,"45":0.14048387110233307,"46":-0.5265688300132751,"47":0.1015414446592331,"48":0.018967246636748314,"49":-0.11116595566272736,"50":-0.770639181137085,"51":-0.6157757043838501,"52":0.7669788599014282,"53":-0.10679560899734497,"54":0.15178650617599487,"55":0.1733292043209076,"56":0.4366108179092407,"57":0.32541927695274353,"58":0.10675320029258728,"59":-0.34077897667884827,"60":0.6823291778564453,"61":-1.0679670572280884,"62":0.08498223125934601,"63":2.0540530681610107,"64":1.4758250713348389,"65":0.20378555357456207,"66":-1.4740082025527954,"67":0.4110550284385681,"68":0.041460070759058,"69":0.024335622787475586,"70":-1.5241023302078247,"71":-1.75934636592865,"72":0.4984574317932129,"73":-0.7368007898330688,"74":-0.21499766409397125,"75":-0.3965102434158325,"76":0.262454628944397,"77":1.074912667274475,"78":-0.15446144342422485,"79":-0.9396981596946716,"80":-0.4985341429710388,"81":-1.6503498554229736,"82":-0.0962546169757843,"83":1.185697078704834,"84":0.4151262938976288,"85":0.3749862313270569,"86":-0.45480936765670776,"87":0.6710509657859802,"88":-0.343161940574646,"89":0.4365951120853424,"90":-0.5733495950698853,"91":-0.17101097106933594,"92":0.45909637212753296,"93":0.08005229383707047,"94":-0.44442135095596313,"95":0.14493213593959808,"96":0.20799373090267181,"97":0.6505557298660278,"98":-0.4490341544151306,"99":-1.3786301612854004,"100":0.07982102036476135,"101":-0.6826160550117493,"102":0.2283656895160675,"103":0.7836470007896423,"104":0.43390414118766785,"105":0.12198476493358612,"106":-0.5690873861312866,"107":0.7862146496772766,"108":-0.020478246733546257,"109":-0.099513478577137,"110":-0.4791083335876465,"111":-0.5491517782211304,"112":0.25390106439590454,"113":-0.3352700471878052,"114":0.011126459576189518,"115":-0.10910366475582123,"116":0.3058643341064453,"117":0.1230134442448616,"118":-0.876550018787384,"119":-0.8853001594543457,"120":0.06848037242889404,"121":1.8973877429962158,"122":-0.6314331889152527,"123":-2.771503210067749,"124":-2.037604808807373,"125":0.01719684526324272,"126":2.5904042720794678,"127":0.6336604356765747,"128":-0.4342620372772217,"129":3.8163294792175293,"130":2.9341540336608887,"131":2.5339529514312744,"132":-0.9233095645904541,"133":-1.461556077003479,"134":-0.344215989112854,"135":0.4470800757408142,"136":-1.3178080320358276,"137":-1.2581011056900024,"138":0.14822252094745636,"139":1.8289679288864136,"140":-0.08450105041265488,"141":-0.756502091884613,"142":0.48647329211235046,"143":-0.6219198703765869,"144":-0.9502261877059937,"145":0.6469807028770447,"146":1.3470367193222046,"147":0.9075559377670288,"148":0.20251403748989105,"149":0.132651224732399,"150":1.1023198366165161,"151":2.1984574794769287,"152":0.5630771517753601,"153":-0.9519153833389282,"154":0.6250253915786743,"155":0.7709890604019165,"156":0.8050124645233154,"157":-3.3393495082855225,"158":-0.9130054116249084,"159":0.3548833727836609,"160":0.04075997695326805,"161":-0.6371795535087585,"162":0.16658197343349457,"163":1.0566067695617676,"164":1.2560632228851318,"165":-0.026089461520314217,"166":-0.1348770707845688,"167":0.7110131978988647,"168":-0.14903925359249115,"169":-0.2598440647125244,"170":-0.8174226880073547,"171":-0.45988377928733826,"172":0.17055471241474152,"173":-0.23824256658554077,"174":-0.2563345432281494,"175":-0.15424253046512604,"176":0.22469031810760498,"177":0.5557631254196167,"178":-0.7519704103469849,"179":-0.6493471264839172,"180":1.0797886848449707,"181":-1.6117656230926514,"182":0.9767179489135742,"183":3.323624849319458,"184":1.6831268072128296,"185":-0.07674629241228104,"186":-2.9466633796691895,"187":-2.037809371948242,"188":0.6401264667510986,"189":-6.760970592498779,"190":-3.496159076690674,"191":-2.6536855697631836,"192":0.6583122611045837,"193":-1.0501723289489746,"194":0.6012818217277527,"195":-1.1245990991592407,"196":1.1192960739135742,"197":-1.0726649761199951,"198":-0.36497050523757935,"199":-1.4000625610351562,"200":0.15590262413024902,"201":-0.945266842842102,"202":0.8935900330543518,"203":0.6280250549316406,"204":0.6645767092704773,"205":0.400484174489975,"206":-0.7569290995597839,"207":0.662901759147644,"208":0.36964669823646545,"209":0.14091505110263824,"210":-1.042352318763733,"211":-0.5951287150382996,"212":0.4846327006816864,"213":0.5601509809494019,"214":0.117922842502594,"215":-0.43145620822906494,"216":0.8593001961708069,"217":0.23345966637134552,"218":-0.6618719100952148,"219":-1.0795066356658936,"220":-0.1887102872133255,"221":-1.1251492500305176,"222":-0.11287891864776611,"223":1.560659408569336,"224":1.193908452987671,"225":0.2328120619058609,"226":-1.1996870040893555,"227":1.1380887031555176,"228":-0.50605309009552,"229":-0.08701103925704956,"230":-1.6764554977416992,"231":-0.8904449939727783,"232":0.22024673223495483,"233":-0.2662202715873718,"234":-0.40845897793769836,"235":-0.08165346086025238,"236":0.13351048529148102,"237":1.0589451789855957,"238":-0.49931514263153076,"239":-1.2915784120559692,"240":0.2034105807542801,"241":-0.894149124622345,"242":0.009713558480143547,"243":1.6987460851669312,"244":1.251094937324524,"245":0.19024091958999634,"246":-1.3154947757720947,"247":0.38582658767700195,"248":-0.2474738210439682,"249":-0.432966947555542,"250":-1.3758068084716797,"251":-0.9748071432113647,"252":0.3376869559288025,"253":-1.0142666101455688,"254":-0.2634579539299011,"255":-0.09599266946315765,"256":0.16430695354938507,"257":1.0423938035964966,"258":-0.2711472511291504,"259":-1.1156994104385376,"260":0.34621620178222656,"261":-1.3340141773223877,"262":0.9517162442207336,"263":2.6932122707366943,"264":1.1531641483306885,"265":0.3813475966453552,"266":-2.6383039951324463,"267":0.07176665961742401,"268":0.6287750601768494,"269":0.45314109325408936,"270":-2.8567211627960205,"271":-0.6193848848342896,"272":0.9552688598632812,"273":1.0343698263168335,"274":0.21637548506259918,"275":0.08785954862833023,"276":1.0093895196914673,"277":-0.18580758571624756,"278":-0.48803770542144775,"279":-1.397675633430481,"280":-0.4288128912448883,"281":0.33566153049468994,"282":-0.28614526987075806,"283":3.1998865604400635,"284":-1.8178842067718506,"285":-0.08384335786104202,"286":-2.6359360218048096,"287":1.9128234386444092,"288":-0.2703080475330353,"289":4.867669582366943,"290":-2.362259864807129,"291":1.19663667678833,"292":-0.17614175379276276,"293":0.5675754547119141,"294":-0.5719326138496399,"295":-0.3143349885940552,"296":-0.4013879597187042,"297":0.2881469130516052,"298":0.20806758105754852,"299":1.9927151203155518,"300":-0.20194464921951294,"301":-1.000897765159607,"302":0.08001319319009781,"303":0.7766820788383484,"304":0.8158196210861206,"305":0.18800486624240875,"306":-0.5435059070587158,"307":0.39387547969818115,"308":0.16029328107833862,"309":0.47861650586128235,"310":-0.6158809065818787,"311":-0.6269241571426392,"312":0.5663670897483826,"313":-0.20082849264144897,"314":-0.11433438211679459,"315":-0.003766002831980586,"316":0.30066773295402527,"317":0.9496647119522095,"318":-0.17617857456207275,"319":-0.23816417157649994,"320":0.5590744614601135,"321":-1.311204433441162,"322":0.9023234248161316,"323":0.2085190862417221,"324":1.1612842082977295,"325":0.43405237793922424,"326":-0.7090805768966675,"327":-2.3314571380615234,"328":0.5396961569786072,"329":-3.0989692211151123,"330":-0.8418576121330261,"331":-1.287960171699524,"332":0.8468503355979919,"333":0.8100391626358032,"334":0.5317732691764832,"335":0.2603163421154022,"336":1.1060987710952759,"337":-0.6574335098266602,"338":-0.06525351852178574,"339":-1.367337703704834,"340":0.3109392821788788,"341":-0.7654218077659607,"342":0.4836746156215668,"343":0.8068299889564514,"344":0.6523008942604065,"345":0.22833625972270966,"346":-0.7917338609695435,"347":1.1605955362319946,"348":0.6634200215339661,"349":0.3813953101634979,"350":-0.9569233655929565,"351":-0.7886497974395752,"352":0.4716748893260956,"353":0.034515731036663055,"354":-0.005692221224308014,"355":-0.42606619000434875,"356":0.34178856015205383,"357":0.3078402876853943,"358":-0.7234407067298889,"359":-0.9536108374595642,"360":-0.44652149081230164,"361":0.33558088541030884,"362":-0.35742855072021484,"363":0.21296709775924683,"364":-1.7578366994857788,"365":-0.20394007861614227,"366":0.3121231496334076,"367":1.6864080429077148,"368":-0.5230632424354553,"369":5.020435333251953,"370":0.4870149791240692,"371":1.7438251972198486,"372":-0.5134598612785339,"373":-0.6845764517784119,"374":-0.8325933218002319,"375":0.0728149563074112,"376":-0.7369865775108337,"377":0.3743005394935608,"378":-0.09682095050811768,"379":1.508671760559082,"380":-0.2550387680530548,"381":-0.5510536432266235,"382":0.016777368262410164,"383":0.9550348520278931,"384":0.8420564532279968,"385":-0.07041319459676743,"386":-0.4286189377307892,"387":-0.08685235679149628,"388":-0.07172523438930511,"389":0.1310671865940094,"390":-0.5704658627510071,"391":-0.5380032062530518,"392":0.2482994794845581,"393":-0.3198051154613495,"394":-0.034299612045288086,"395":0.162102609872818,"396":0.06956789642572403,"397":0.79840487241745,"398":-0.025324422866106033,"399":-0.20249633491039276}},"inputHidden":{"rows":20,"columns":20,"weights":{"0":-0.22611570358276367,"1":0.016657814383506775,"2":-0.7598149180412292,"3":0.029182827100157738,"4":0.10011717677116394,"5":-0.0777711346745491,"6":-0.42206132411956787,"7":0.11384376883506775,"8":-0.07712814956903458,"9":0.040592893958091736,"10":0.03938201814889908,"11":0.20582596957683563,"12":0.11507769674062729,"13":0.08249377459287643,"14":-0.2203499674797058,"15":-0.47391217947006226,"16":-2.1327991485595703,"17":0.4069959819316864,"18":-0.035061065107584,"19":-0.00960278045386076,"20":0.26735424995422363,"21":0.1636349856853485,"22":0.03761443495750427,"23":0.014957595616579056,"24":-0.23300538957118988,"25":-0.006431432906538248,"26":0.6843063831329346,"27":-0.09888970106840134,"28":0.11405182629823685,"29":0.03982551395893097,"30":0.02244599722325802,"31":-0.23312325775623322,"32":-0.08867707848548889,"33":0.36627060174942017,"34":0.16408155858516693,"35":0.10251887887716293,"36":0.46756595373153687,"37":-0.2957341969013214,"38":0.2838558852672577,"39":0.0585046261548996,"40":0.15101048350334167,"41":-0.07897154241800308,"42":0.2729847729206085,"43":-0.03884038329124451,"44":0.2900241017341614,"45":0.2194063663482666,"46":-0.5384100675582886,"47":0.5793032050132751,"48":0.034635841846466064,"49":0.15266633033752441,"50":0.04041765630245209,"51":-0.1155015379190445,"52":0.08507795631885529,"53":-0.04417296499013901,"54":-0.4891514182090759,"55":0.24456657469272614,"56":0.8692666292190552,"57":-0.14025364816188812,"58":0.10234401375055313,"59":-0.05225600674748421,"60":0.03133249282836914,"61":-0.3907184898853302,"62":0.5439900159835815,"63":1.1533129215240479,"64":1.5013153553009033,"65":1.0481621026992798,"66":0.2778512239456177,"67":0.967872679233551,"68":-0.6721997857093811,"69":-0.10939236730337143,"70":0.35539665818214417,"71":0.6239523887634277,"72":0.48107293248176575,"73":-0.42550602555274963,"74":-0.389723002910614,"75":0.5008378028869629,"76":1.7914267778396606,"77":-1.483274221420288,"78":0.7671224474906921,"79":0.1258750855922699,"80":-0.15420560538768768,"81":-0.47829970717430115,"82":0.6231822371482849,"83":-0.03317636251449585,"84":0.8212012648582458,"85":0.21769146621227264,"86":1.2488466501235962,"87":0.31627222895622253,"88":-0.014331950806081295,"89":-0.38498571515083313,"90":0.5461361408233643,"91":-0.052001845091581345,"92":-0.15783922374248505,"93":0.07078275829553604,"94":-0.2793937623500824,"95":0.33635464310646057,"96":0.7653242945671082,"97":0.12136485427618027,"98":1.2003390789031982,"99":-0.010756452567875385,"100":0.1477544605731964,"101":-0.1878517121076584,"102":0.5516071319580078,"103":0.1182050034403801,"104":0.9099705219268799,"105":0.4078178405761719,"106":0.830481767654419,"107":0.3237520158290863,"108":0.03896408528089523,"109":0.0805792510509491,"110":-0.05304422974586487,"111":-0.04401959106326103,"112":-0.13575170934200287,"113":-0.2811604142189026,"114":-0.09426948428153992,"115":0.5199089646339417,"116":0.39902815222740173,"117":-0.18434633314609528,"118":0.6230763792991638,"119":0.008717089891433716,"120":0.16876515746116638,"121":-0.16398170590400696,"122":-0.9571016430854797,"123":0.1991671770811081,"124":0.05569466948509216,"125":-0.11033209413290024,"126":2.5557548999786377,"127":0.12106731534004211,"128":-0.3332427144050598,"129":-0.07413088530302048,"130":0.32890790700912476,"131":0.5180059671401978,"132":-0.031218087300658226,"133":-0.12941409647464752,"134":0.12215230613946915,"135":-0.6013984084129333,"136":-2.2949318885803223,"137":0.7660585045814514,"138":-0.07269445806741714,"139":0.28368911147117615,"140":-0.21456614136695862,"141":-0.0054731364361941814,"142":0.14862670004367828,"143":-0.5662192702293396,"144":0.21548987925052643,"145":-0.017150117084383965,"146":-0.6110622882843018,"147":0.22064445912837982,"148":0.3991115093231201,"149":0.6921635866165161,"150":-0.5458623766899109,"151":-0.23684556782245636,"152":-0.2907549738883972,"153":-0.3001616597175598,"154":-0.048120081424713135,"155":0.10388699173927307,"156":-1.1042242050170898,"157":0.19458307325839996,"158":-0.06035957857966423,"159":-0.5559138655662537,"160":0.12125781923532486,"161":0.08612316846847534,"162":0.2959291338920593,"163":0.14919057488441467,"164":0.486162394285202,"165":0.2774885892868042,"166":0.5089237689971924,"167":0.7645059823989868,"168":0.24009570479393005,"169":-0.023106057196855545,"170":0.08713904768228531,"171":-0.24137483537197113,"172":-0.09344005584716797,"173":0.11490633338689804,"174":-0.6609209179878235,"175":0.41540008783340454,"176":0.7356771230697632,"177":-0.36933815479278564,"178":0.0984216257929802,"179":0.13766302168369293,"180":0.19796454906463623,"181":0.4743880331516266,"182":0.4915682375431061,"183":1.5201765298843384,"184":0.9352434277534485,"185":1.31045663356781,"186":-4.3102216720581055,"187":0.21518465876579285,"188":-0.5873972177505493,"189":-0.048763103783130646,"190":-0.19592395424842834,"191":0.47372710704803467,"192":0.8168118000030518,"193":0.20051001012325287,"194":0.9597806334495544,"195":0.6784562468528748,"196":3.812710762023926,"197":-2.5757534503936768,"198":1.0902462005615234,"199":0.05289902165532112,"200":0.29683631658554077,"201":0.23149831593036652,"202":0.1944323629140854,"203":0.17868421971797943,"204":0.0572904571890831,"205":-0.057793550193309784,"206":0.482129842042923,"207":0.11983651667833328,"208":0.12872034311294556,"209":0.07860266417264938,"210":0.03745158016681671,"211":-0.191677525639534,"212":-0.09458984434604645,"213":0.17966830730438232,"214":0.2494751214981079,"215":0.1616048961877823,"216":0.7017024159431458,"217":-0.3504979610443115,"218":0.5038864016532898,"219":-0.07892844825983047,"220":0.46449822187423706,"221":0.09276917576789856,"222":0.5923908352851868,"223":0.18708178400993347,"224":0.47005873918533325,"225":0.39741021394729614,"226":0.8195581436157227,"227":0.7478400468826294,"228":0.2719695568084717,"229":0.04674864187836647,"230":0.11967648565769196,"231":-0.5187899470329285,"232":-0.022436125203967094,"233":0.1934194266796112,"234":-0.5581337809562683,"235":0.3946654498577118,"236":1.9602563381195068,"237":-0.576049268245697,"238":0.41745883226394653,"239":-0.0002602497988846153,"240":0.38172242045402527,"241":-0.12968674302101135,"242":0.7530006170272827,"243":0.20106086134910583,"244":0.9930835962295532,"245":-0.027090568095445633,"246":0.7738990187644958,"247":0.40967467427253723,"248":-0.1221206784248352,"249":-0.5591273903846741,"250":0.5451454520225525,"251":-0.03546469658613205,"252":-0.23882782459259033,"253":-0.5289575457572937,"254":-0.8211925029754639,"255":0.5837258696556091,"256":1.4699342250823975,"257":-0.10373546928167343,"258":0.40783804655075073,"259":0.18097084760665894,"260":-0.07209283858537674,"261":0.24412420392036438,"262":1.124782681465149,"263":0.02350042387843132,"264":0.37050101161003113,"265":-0.23311275243759155,"266":0.3758903443813324,"267":-0.50822514295578,"268":0.09641902148723602,"269":0.04427288845181465,"270":-0.16694235801696777,"271":-0.23782934248447418,"272":-0.08469577878713608,"273":-0.12334048748016357,"274":-0.07521417737007141,"275":0.8104089498519897,"276":2.2810556888580322,"277":-0.7136409282684326,"278":0.5728410482406616,"279":0.03787015378475189,"280":-0.28872978687286377,"281":-0.18221095204353333,"282":0.999764084815979,"283":-0.2254766821861267,"284":0.5759992599487305,"285":0.15005061030387878,"286":2.5023550987243652,"287":0.09052089601755142,"288":-0.10552403330802917,"289":-0.2870669960975647,"290":0.2626640796661377,"291":-0.007362764328718185,"292":-0.060963768512010574,"293":-0.2115049660205841,"294":-0.8833500146865845,"295":0.6312745809555054,"296":2.127689838409424,"297":-0.06711174547672272,"298":0.9511428475379944,"299":-0.13318736851215363,"300":0.0860232338309288,"301":-0.403268039226532,"302":0.19227683544158936,"303":-0.12535929679870605,"304":0.08466607332229614,"305":0.22294743359088898,"306":-0.19574633240699768,"307":0.3752879798412323,"308":-0.08170893788337708,"309":0.2805337905883789,"310":0.2560894787311554,"311":-0.008766135200858116,"312":0.15786339342594147,"313":0.061378419399261475,"314":-0.47688719630241394,"315":0.03251757100224495,"316":0.7322396039962769,"317":0.07754160463809967,"318":0.3130244314670563,"319":0.0397532619535923,"320":-0.04506467282772064,"321":0.3834230303764343,"322":0.01857994869351387,"323":-0.12299494445323944,"324":-0.45130279660224915,"325":0.19188380241394043,"326":-0.2405187487602234,"327":-0.3377426266670227,"328":0.22359326481819153,"329":0.12952950596809387,"330":-0.4072948098182678,"331":-0.2500190734863281,"332":0.13867196440696716,"333":0.29313305020332336,"334":0.48714974522590637,"335":0.0030549524817615747,"336":0.6130561232566833,"337":-0.3979964554309845,"338":0.2685568928718567,"339":-0.1512296497821808,"340":0.3039870858192444,"341":0.08433923870325089,"342":0.3169509470462799,"343":0.16421112418174744,"344":-0.010348307900130749,"345":0.45746728777885437,"346":0.471854567527771,"347":0.1731644570827484,"348":0.17012159526348114,"349":0.40646108984947205,"350":-0.24483636021614075,"351":-0.29112616181373596,"352":0.1286526322364807,"353":0.30169016122817993,"354":0.307230144739151,"355":0.16572634875774384,"356":0.9836477041244507,"357":-0.4136500358581543,"358":0.3777875006198883,"359":0.1244012638926506,"360":-0.4307490885257721,"361":-0.1274653822183609,"362":0.1273019164800644,"363":0.07782460004091263,"364":1.0637141466140747,"365":0.3683418035507202,"366":2.311025381088257,"367":0.8238486051559448,"368":-0.17539310455322266,"369":-0.24532166123390198,"370":0.4680936932563782,"371":0.07276991754770279,"372":0.06966773420572281,"373":-0.20312412083148956,"374":-0.44780516624450684,"375":0.15351594984531403,"376":-0.24648292362689972,"377":0.3867800831794739,"378":0.640906035900116,"379":-0.020351899787783623,"380":-0.01325207483023405,"381":-0.06629756838083267,"382":0.4301671087741852,"383":-0.17970778048038483,"384":0.6384642124176025,"385":-0.07481607049703598,"386":0.0875316634774208,"387":0.1590600311756134,"388":-0.14507970213890076,"389":-0.47187143564224243,"390":0.5507804751396179,"391":0.07677187025547028,"392":-0.16409647464752197,"393":-0.3289419710636139,"394":-0.812074601650238,"395":0.3652656376361847,"396":0.5990652441978455,"397":-0.15250881016254425,"398":0.19543559849262238,"399":-0.10181897133588791}},"inputBias":{"rows":20,"columns":1,"weights":{"0":-2.226768970489502,"1":-1.0183683633804321,"2":-0.6722403168678284,"3":-1.5322597026824951,"4":-0.7247779965400696,"5":-0.4956403374671936,"6":2.984764337539673,"7":2.673776388168335,"8":-0.43031856417655945,"9":-1.965577244758606,"10":-0.805203378200531,"11":-0.949212908744812,"12":-0.8891679048538208,"13":-0.985110878944397,"14":3.3171703815460205,"15":-0.5924587845802307,"16":-2.0158965587615967,"17":-0.5657050013542175,"18":3.2591540813446045,"19":-0.7193994522094727}},"forgetMatrix":{"rows":20,"columns":20,"weights":{"0":0.0972861796617508,"1":-0.0813237875699997,"2":0.09243448078632355,"3":0.02488211914896965,"4":-0.12690523266792297,"5":0.10106822848320007,"6":-0.11481382697820663,"7":-0.09231551736593246,"8":0.09976746886968613,"9":-0.09406010061502457,"10":-0.08500231057405472,"11":0.09843871742486954,"12":0.08477471768856049,"13":0.1556638479232788,"14":0.07318298518657684,"15":-0.002633666852489114,"16":0.0869482234120369,"17":-0.18363963067531586,"18":-0.018199017271399498,"19":-0.04629172012209892,"20":0.38417544960975647,"21":0.29199519753456116,"22":0.28258705139160156,"23":0.2302059531211853,"24":-0.11872298270463943,"25":-0.09209419786930084,"26":-0.475482314825058,"27":-0.06962575018405914,"28":0.38210004568099976,"29":0.07045483589172363,"30":-0.3424097001552582,"31":-0.10273262113332748,"32":0.14514142274856567,"33":0.15984487533569336,"34":0.17953605949878693,"35":0.07388121634721756,"36":0.17651425302028656,"37":-0.2517271041870117,"38":0.10304705798625946,"39":0.203208789229393,"40":0.14722803235054016,"41":-0.15414606034755707,"42":0.15609018504619598,"43":0.35564061999320984,"44":0.049036476761102676,"45":0.06666721403598785,"46":-0.3289986848831177,"47":-0.07370307296514511,"48":0.09525863081216812,"49":0.13652577996253967,"50":-0.3853040039539337,"51":0.056460797786712646,"52":0.05108851566910744,"53":-0.17206238210201263,"54":0.09451699256896973,"55":0.06814789772033691,"56":0.11813215166330338,"57":0.06981205940246582,"58":-0.05880443751811981,"59":-0.0969633087515831,"60":0.29081740975379944,"61":-0.25094929337501526,"62":0.16557557880878448,"63":-0.06952231377363205,"64":0.20964442193508148,"65":0.17936144769191742,"66":0.03812486678361893,"67":-0.02396104298532009,"68":0.33331751823425293,"69":0.10496604442596436,"70":-0.05113454535603523,"71":-0.12254392355680466,"72":0.2555217444896698,"73":-0.6964761018753052,"74":0.1428564190864563,"75":-0.11392104625701904,"76":0.20435604453086853,"77":-0.21507976949214935,"78":-0.13569499552249908,"79":0.04906722530722618,"80":-0.23001231253147125,"81":-0.2530179023742676,"82":-0.5187957882881165,"83":-0.17656056582927704,"84":-0.013333072885870934,"85":-0.12283936142921448,"86":0.4530493915081024,"87":0.052000779658555984,"88":-0.6158642172813416,"89":-0.3791830241680145,"90":0.515357494354248,"91":-0.24411186575889587,"92":-0.10296175628900528,"93":-0.9086984395980835,"94":-0.5110456347465515,"95":0.1444639414548874,"96":-0.45508602261543274,"97":0.322203129529953,"98":0.058925602585077286,"99":-0.19893716275691986,"100":-0.0811566710472107,"101":-0.23631541430950165,"102":-0.31584420800209045,"103":0.08913160115480423,"104":0.025783708319067955,"105":0.055857229977846146,"106":0.05966003239154816,"107":-0.09589523822069168,"108":-0.2918112576007843,"109":-0.1810673624277115,"110":-0.060108039528131485,"111":-0.09684500098228455,"112":0.15450352430343628,"113":-0.4972541630268097,"114":-0.15533344447612762,"115":0.0937894731760025,"116":-0.12998837232589722,"117":0.17253459990024567,"118":0.269347220659256,"119":0.30915430188179016,"120":-0.1750798225402832,"121":-0.05511144548654556,"122":0.03743518888950348,"123":0.9746831059455872,"124":-0.5246203541755676,"125":-0.0027428600005805492,"126":-0.16750843822956085,"127":-1.1891026496887207,"128":0.020532695576548576,"129":-1.260603427886963,"130":-0.6920866370201111,"131":-0.20928955078125,"132":0.025325316935777664,"133":0.39513862133026123,"134":-0.011630386114120483,"135":-0.23500624299049377,"136":0.027934854850172997,"137":0.10100195556879044,"138":0.8764079809188843,"139":0.9242686629295349,"140":0.5617270469665527,"141":-0.029651744291186333,"142":0.7388347387313843,"143":-1.050444483757019,"144":0.26050814986228943,"145":0.5188817381858826,"146":0.3428901433944702,"147":-0.08034709841012955,"148":0.8329224586486816,"149":0.06626201421022415,"150":0.2512088716030121,"151":0.6776465773582458,"152":0.563957691192627,"153":0.9813997149467468,"154":1.0259411334991455,"155":1.044402003288269,"156":0.9254503846168518,"157":-1.2895770072937012,"158":-0.5163818597793579,"159":-0.07811801135540009,"160":0.007750070188194513,"161":0.02235223539173603,"162":-0.09406040608882904,"163":0.08722098916769028,"164":-0.10729625076055527,"165":0.02287989668548107,"166":-0.10909870266914368,"167":-0.14378593862056732,"168":-0.03728580102324486,"169":0.18715618550777435,"170":0.0871497169137001,"171":0.10184215754270554,"172":0.07367251813411713,"173":-0.08857114613056183,"174":-0.07409407943487167,"175":0.07977522909641266,"176":-0.09920308738946915,"177":-0.11304237693548203,"178":0.16395913064479828,"179":0.06851883977651596,"180":-0.4443853497505188,"181":0.5574355125427246,"182":-0.3320196866989136,"183":-2.4441606998443604,"184":0.13676071166992188,"185":-0.26630067825317383,"186":2.2992184162139893,"187":0.42748332023620605,"188":-0.2613554894924164,"189":-0.31279534101486206,"190":2.3033053874969482,"191":-0.39592739939689636,"192":-0.31619492173194885,"193":-2.581563711166382,"194":-0.26683932542800903,"195":-0.00495862914249301,"196":-0.37335464358329773,"197":0.2628888785839081,"198":-0.24053306877613068,"199":0.2827850580215454,"200":0.30587038397789,"201":-0.041097111999988556,"202":0.0022065460216253996,"203":0.14440128207206726,"204":-0.019396532326936722,"205":0.22630096971988678,"206":-0.47438496351242065,"207":-0.2464333325624466,"208":-0.0012731392635032535,"209":-0.020326869562268257,"210":-0.44971558451652527,"211":-0.07372528314590454,"212":0.08072617650032043,"213":0.10059808194637299,"214":0.153535395860672,"215":0.15808932483196259,"216":0.0653858631849289,"217":-0.2804117500782013,"218":-0.05253925174474716,"219":0.07870765775442123,"220":-0.2421744018793106,"221":0.20799119770526886,"222":-0.13250499963760376,"223":-0.23353472352027893,"224":-0.11859714984893799,"225":-0.20360569655895233,"226":0.19098161160945892,"227":0.0930749699473381,"228":-0.12526729702949524,"229":0.2429400235414505,"230":0.30578896403312683,"231":-0.04147913306951523,"232":-0.10901689529418945,"233":-0.2527952492237091,"234":-0.20280350744724274,"235":-0.13841131329536438,"236":-0.18835267424583435,"237":0.1823885142803192,"238":0.024795543402433395,"239":-0.03613891825079918,"240":-0.2620057165622711,"241":-0.15984202921390533,"242":-0.07071935385465622,"243":-0.09565800428390503,"244":0.07952442020177841,"245":-0.10520097613334656,"246":0.29643088579177856,"247":0.07314513623714447,"248":-0.09199333935976028,"249":-0.16860748827457428,"250":0.16848023235797882,"251":-0.1823519617319107,"252":0.04876416176557541,"253":-0.4197760224342346,"254":-0.033499788492918015,"255":-0.12350499629974365,"256":-0.010172151029109955,"257":0.09763757884502411,"258":0.15125328302383423,"259":0.0046066297218203545,"260":-0.08426744490861893,"261":0.33210963010787964,"262":-0.18578806519508362,"263":-0.09559696912765503,"264":-0.03483689948916435,"265":-0.12132958322763443,"266":0.08921405673027039,"267":0.06796473264694214,"268":-0.17140084505081177,"269":-0.16573618352413177,"270":0.07265806198120117,"271":-0.03168480470776558,"272":-0.1926451474428177,"273":-0.2928633689880371,"274":-0.12494693696498871,"275":0.010730266571044922,"276":-0.24284495413303375,"277":0.07038795202970505,"278":0.27813705801963806,"279":0.15931199491024017,"280":0.4363062381744385,"281":-0.04476127400994301,"282":0.4643288254737854,"283":0.7246438264846802,"284":-0.019643183797597885,"285":0.3922269940376282,"286":-0.8094031810760498,"287":0.019894100725650787,"288":0.5374544858932495,"289":0.33646848797798157,"290":-0.8887497782707214,"291":0.44656702876091003,"292":0.09782273322343826,"293":0.5323752164840698,"294":0.46574515104293823,"295":-0.019113967195153236,"296":0.3498409390449524,"297":-0.472362220287323,"298":-0.2871200740337372,"299":-0.37453600764274597,"300":0.11176717281341553,"301":-0.18772761523723602,"302":0.13873934745788574,"303":0.0969223827123642,"304":-0.019600993022322655,"305":0.09621436893939972,"306":-0.17428819835186005,"307":-0.08377379924058914,"308":0.11857965588569641,"309":0.07598850876092911,"310":-0.189300537109375,"311":0.03784734755754471,"312":0.15579195320606232,"313":0.052096351981163025,"314":0.14914333820343018,"315":-0.014017002657055855,"316":0.18419058620929718,"317":-0.03668138384819031,"318":-0.17523397505283356,"319":-0.054485172033309937,"320":0.2839541435241699,"321":0.2402649223804474,"322":0.1749570220708847,"323":0.7144293189048767,"324":-0.1263633668422699,"325":-0.08942647278308868,"326":-0.9319563508033752,"327":-0.1276847869157791,"328":0.21960404515266418,"329":0.10965493321418762,"330":-0.8819354176521301,"331":-0.02032732032239437,"332":0.019426073879003525,"333":-1.340013027191162,"334":0.06174006313085556,"335":-0.031207621097564697,"336":0.09307918697595596,"337":0.01787206344306469,"338":0.10609812289476395,"339":-0.09551521390676498,"340":0.3978224992752075,"341":0.12418070435523987,"342":0.3882612884044647,"343":0.12863270938396454,"344":-0.13556110858917236,"345":-0.004997137933969498,"346":-0.3456982672214508,"347":0.014067229814827442,"348":0.1537780612707138,"349":0.1776553988456726,"350":-0.30222025513648987,"351":-0.13109895586967468,"352":-0.08732251822948456,"353":0.6849621534347534,"354":0.2859453558921814,"355":-0.22104191780090332,"356":0.17038440704345703,"357":-0.30310580134391785,"358":-0.16709569096565247,"359":-0.09823377430438995,"360":-0.2810434401035309,"361":0.007980435155332088,"362":-0.6227898001670837,"363":-0.22372831404209137,"364":0.04978962987661362,"365":-0.09555994719266891,"366":0.45382675528526306,"367":0.33547213673591614,"368":-0.555567741394043,"369":0.0817347913980484,"370":0.3409288823604584,"371":-0.4512593448162079,"372":-0.24149373173713684,"373":-0.5332362651824951,"374":0.00838969461619854,"375":-0.03653613105416298,"376":-0.4283866882324219,"377":0.6685150265693665,"378":0.04039505124092102,"379":0.27608412504196167,"380":0.12350863963365555,"381":-0.1572369486093521,"382":0.16255715489387512,"383":0.1460810750722885,"384":0.19276344776153564,"385":0.1397060602903366,"386":-0.09670044481754303,"387":-0.01699540577828884,"388":0.16034790873527527,"389":0.06301406025886536,"390":-0.1518612951040268,"391":-0.07516530901193619,"392":0.16632379591464996,"393":0.08379481732845306,"394":0.13850070536136627,"395":-0.017584308981895447,"396":0.15831239521503448,"397":-0.08794055879116058,"398":-0.13492009043693542,"399":0.0945337787270546}},"forgetHidden":{"rows":20,"columns":20,"weights":{"0":-0.13146090507507324,"1":0.014446272514760494,"2":0.14054684340953827,"3":-0.12276511639356613,"4":0.04337671026587486,"5":0.09867598116397858,"6":-0.041872788220644,"7":-0.06425189226865768,"8":0.09593696147203445,"9":-0.09458756446838379,"10":-0.0531497448682785,"11":0.05171510577201843,"12":0.03419557586312294,"13":-0.034659259021282196,"14":-0.07642796635627747,"15":0.0948137417435646,"16":0.039465032517910004,"17":0.02146652340888977,"18":0.055922314524650574,"19":-0.12050925940275192,"20":0.02793688140809536,"21":0.1306973099708557,"22":0.1115516945719719,"23":0.015828853473067284,"24":0.05359635502099991,"25":-0.09027019888162613,"26":0.002202503615990281,"27":-0.3627915382385254,"28":-0.008169208653271198,"29":-0.052307985723018646,"30":-0.14229227602481842,"31":0.03561268746852875,"32":-0.033327147364616394,"33":-0.3089980483055115,"34":0.40978145599365234,"35":0.11827825009822845,"36":0.04489877447485924,"37":-0.17953364551067352,"38":-0.016555283218622208,"39":-0.008605440147221088,"40":0.008703663013875484,"41":0.22575412690639496,"42":0.41081807017326355,"43":-0.07494812458753586,"44":0.2298222929239273,"45":-0.10488422960042953,"46":0.1376410722732544,"47":-0.39548012614250183,"48":0.17203137278556824,"49":-0.20574039220809937,"50":-0.03768910467624664,"51":-0.20125055313110352,"52":-0.12379427254199982,"53":-0.038213539868593216,"54":0.17910994589328766,"55":0.34710705280303955,"56":0.42330580949783325,"57":-0.341361403465271,"58":0.20224040746688843,"59":-0.055400148034095764,"60":0.058419179171323776,"61":0.20099769532680511,"62":-0.167504221200943,"63":0.3826141357421875,"64":0.12300045788288116,"65":0.2932366728782654,"66":-0.01928645186126232,"67":0.1465718150138855,"68":0.15246886014938354,"69":0.7825003862380981,"70":-0.17921701073646545,"71":-0.06537771970033646,"72":0.13294069468975067,"73":0.006581073626875877,"74":0.1903526782989502,"75":-0.06094115972518921,"76":0.05360541120171547,"77":-0.7691628932952881,"78":0.025036273524165154,"79":-0.055352166295051575,"80":-0.0004776316345669329,"81":-0.3121899664402008,"82":-0.0466458760201931,"83":0.18111206591129303,"84":0.7818885445594788,"85":0.4167400002479553,"86":0.07529382407665253,"87":0.778150200843811,"88":0.0021021896973252296,"89":0.21665208041667938,"90":0.23015223443508148,"91":-0.10506802797317505,"92":0.018408482894301414,"93":-0.1278066486120224,"94":-0.602055013179779,"95":0.07234842330217361,"96":-0.14085116982460022,"97":0.094046950340271,"98":0.2318565547466278,"99":-0.0691598504781723,"100":0.0168776698410511,"101":-0.09902473539113998,"102":0.04631282761693001,"103":-0.040944088250398636,"104":0.3017387390136719,"105":0.25722405314445496,"106":0.16910114884376526,"107":0.4540957808494568,"108":0.3769553005695343,"109":0.3802751898765564,"110":-0.01724449172616005,"111":-0.34237366914749146,"112":-0.011881816200911999,"113":-0.05846349522471428,"114":-0.23346561193466187,"115":0.06621647626161575,"116":0.24125251173973083,"117":-0.18856096267700195,"118":0.30563002824783325,"119":-0.13428351283073425,"120":-0.35735705494880676,"121":0.1423477679491043,"122":0.473698228597641,"123":-0.10503216087818146,"124":-0.011827278882265091,"125":0.2256060242652893,"126":-1.091953158378601,"127":-0.09379604458808899,"128":0.170608788728714,"129":-3.168978214263916,"130":-0.3442637324333191,"131":-0.29332414269447327,"132":0.17253336310386658,"133":0.04078591242432594,"134":0.36588624119758606,"135":0.31007638573646545,"136":1.3913989067077637,"137":-0.10414938628673553,"138":-0.4687376320362091,"139":-0.08515264093875885,"140":-0.05248516425490379,"141":0.48129743337631226,"142":-0.783003568649292,"143":0.38881146907806396,"144":-1.0529694557189941,"145":0.27487772703170776,"146":-1.3712419271469116,"147":0.26255717873573303,"148":0.06202924624085426,"149":0.4766422510147095,"150":-0.7182731628417969,"151":0.013025568798184395,"152":0.3135311007499695,"153":0.292467325925827,"154":0.4004293382167816,"155":-0.5577157735824585,"156":-0.6187146306037903,"157":-0.2626984119415283,"158":-0.9128754138946533,"159":0.1477045714855194,"160":0.06060822680592537,"161":-0.14908848702907562,"162":0.1690419614315033,"163":0.017279764637351036,"164":0.14494918286800385,"165":-0.1493961364030838,"166":0.2970426082611084,"167":-0.041865598410367966,"168":-0.08984668552875519,"169":0.06425917893648148,"170":0.11116562783718109,"171":0.10804466158151627,"172":-0.16866327822208405,"173":-0.08305960148572922,"174":-0.12638042867183685,"175":0.1642141193151474,"176":-0.16396532952785492,"177":0.21401754021644592,"178":0.2390710413455963,"179":0.04418695718050003,"180":0.043985821306705475,"181":-0.2064148187637329,"182":-1.1501749753952026,"183":0.4256107807159424,"184":0.055554624646902084,"185":0.3517443835735321,"186":-0.3358742296695709,"187":0.4585811197757721,"188":-0.04206029325723648,"189":-1.1555508375167847,"190":-0.176291823387146,"191":0.22696936130523682,"192":0.04548923671245575,"193":0.03827826306223869,"194":-0.29492509365081787,"195":-0.8488307595252991,"196":-1.7673442363739014,"197":0.1512947827577591,"198":-1.1623636484146118,"199":0.07589785009622574,"200":0.166544109582901,"201":0.31619447469711304,"202":0.21405461430549622,"203":0.053954362869262695,"204":-0.026696886867284775,"205":-0.2881985604763031,"206":0.14898592233657837,"207":-0.13532084226608276,"208":0.02185487560927868,"209":0.1453954130411148,"210":0.07354867458343506,"211":-0.1743592917919159,"212":-0.11156000941991806,"213":-0.08679499477148056,"214":-0.030019404366612434,"215":0.1811300367116928,"216":0.2845763862133026,"217":-0.2281794399023056,"218":0.2592211067676544,"219":0.04890378192067146,"220":0.004681060090661049,"221":-0.18617230653762817,"222":-0.043675851076841354,"223":-0.3137698471546173,"224":0.14468900859355927,"225":-0.08866767585277557,"226":0.2940216362476349,"227":0.048505187034606934,"228":-0.16852827370166779,"229":-0.3254057765007019,"230":0.1715853214263916,"231":0.32898828387260437,"232":-0.27757441997528076,"233":-0.09960564970970154,"234":0.0850241556763649,"235":-0.015963010489940643,"236":-0.3431527018547058,"237":0.25971999764442444,"238":0.17854787409305573,"239":-0.24886102974414825,"240":-0.10444854199886322,"241":-0.17082583904266357,"242":-0.08840048313140869,"243":-0.11791576445102692,"244":0.04687570780515671,"245":0.23800188302993774,"246":-0.104824498295784,"247":0.18043252825737,"248":0.1973400115966797,"249":-0.1026340052485466,"250":-0.11629613488912582,"251":-0.04530738666653633,"252":0.08830023556947708,"253":0.09563490748405457,"254":-0.05608988180756569,"255":-0.1248302087187767,"256":-0.004069141577929258,"257":0.06504876166582108,"258":-0.10809741169214249,"259":-0.11954312026500702,"260":0.011021880432963371,"261":-0.07191750407218933,"262":-0.19246898591518402,"263":-0.02584220841526985,"264":-0.04495062306523323,"265":0.12094249576330185,"266":0.07940056920051575,"267":0.014182078652083874,"268":0.03269265219569206,"269":-0.8135479092597961,"270":0.04146129637956619,"271":-0.008778735063970089,"272":0.06193618103861809,"273":0.022630708292126656,"274":-0.0338815338909626,"275":-0.12838289141654968,"276":0.14146949350833893,"277":0.06401819735765457,"278":-0.15268480777740479,"279":-0.039003219455480576,"280":0.016105595976114273,"281":0.3084118664264679,"282":0.10599566251039505,"283":0.10632530599832535,"284":-0.21856588125228882,"285":-0.31787416338920593,"286":-0.19161519408226013,"287":-0.4911864399909973,"288":-0.010560301132500172,"289":-0.02453687973320484,"290":-0.18211746215820312,"291":-0.09442222863435745,"292":-0.07549753040075302,"293":-0.03925345093011856,"294":0.44853588938713074,"295":-0.06058049574494362,"296":0.670632541179657,"297":-0.271217405796051,"298":-0.13156771659851074,"299":0.02005656436085701,"300":-0.0035414905287325382,"301":0.19533568620681763,"302":0.13758431375026703,"303":-0.07609029859304428,"304":0.1915619671344757,"305":-0.09306512027978897,"306":0.03631176799535751,"307":-0.17111283540725708,"308":0.16845090687274933,"309":-0.1427636742591858,"310":-0.1364239752292633,"311":-0.1522880494594574,"312":-0.10433057695627213,"313":-0.06541984528303146,"314":0.12635795772075653,"315":0.16845515370368958,"316":0.13702861964702606,"317":-0.24368153512477875,"318":0.13190630078315735,"319":-0.10493900626897812,"320":0.016838395968079567,"321":0.07710378617048264,"322":0.1778372824192047,"323":0.010813741944730282,"324":0.10518813133239746,"325":-0.2536185383796692,"326":0.03849786892533302,"327":-0.8332324028015137,"328":-0.15687960386276245,"329":-0.6875948905944824,"330":0.07817146927118301,"331":0.1786496490240097,"332":-0.1081964299082756,"333":-0.29408350586891174,"334":0.35054489970207214,"335":0.11493486166000366,"336":0.9659361839294434,"337":-0.2579493522644043,"338":-0.04017286375164986,"339":0.030554000288248062,"340":0.040259331464767456,"341":0.39422640204429626,"342":0.23739340901374817,"343":0.17747259140014648,"344":0.2585645914077759,"345":-0.05307165905833244,"346":-0.13188976049423218,"347":-0.23089870810508728,"348":0.06201200187206268,"349":-0.0014625019393861294,"350":-0.2996605336666107,"351":-0.0052498416043818,"352":-0.1844959259033203,"353":-0.3796588182449341,"354":0.5019760131835938,"355":0.27546852827072144,"356":-0.023248298093676567,"357":-0.5074144005775452,"358":0.13478423655033112,"359":-0.042947012931108475,"360":0.11116442829370499,"361":-0.25424885749816895,"362":-0.021105559542775154,"363":-0.04823916032910347,"364":-0.14877520501613617,"365":0.3407876789569855,"366":0.2575458288192749,"367":0.42222660779953003,"368":0.071382537484169,"369":0.44217249751091003,"370":0.0742412731051445,"371":-0.10798969119787216,"372":0.23024439811706543,"373":-0.045272041112184525,"374":-0.5649924278259277,"375":-0.0824175477027893,"376":0.07094870507717133,"377":-0.2559179365634918,"378":-0.13443434238433838,"379":-0.011379113420844078,"380":0.09906868636608124,"381":0.12094539403915405,"382":0.02864193543791771,"383":-0.059931542724370956,"384":0.020088395103812218,"385":-0.04218561574816704,"386":0.07394004613161087,"387":-0.0817968100309372,"388":0.19382567703723907,"389":0.1041848361492157,"390":-0.0917045846581459,"391":-0.1898079812526703,"392":-0.09461332857608795,"393":0.042033400386571884,"394":0.028607141226530075,"395":0.042597342282533646,"396":0.11961662769317627,"397":-0.15772993862628937,"398":0.03664681687951088,"399":-0.06944228708744049}},"forgetBias":{"rows":20,"columns":1,"weights":{"0":0,"1":0,"2":0,"3":0,"4":0,"5":0,"6":0,"7":0,"8":0,"9":0,"10":0,"11":0,"12":0,"13":0,"14":0,"15":0,"16":0,"17":0,"18":0,"19":0}},"outputMatrix":{"rows":20,"columns":20,"weights":{"0":0.0031907919328659773,"1":-0.35324740409851074,"2":0.020073264837265015,"3":-0.18079493939876556,"4":1.5652573108673096,"5":-0.08179666101932526,"6":-0.13745176792144775,"7":0.48106181621551514,"8":0.12200547754764557,"9":-0.19838309288024902,"10":-0.2915320098400116,"11":-1.2526943683624268,"12":0.3286278545856476,"13":0.6828858852386475,"14":0.06610625982284546,"15":-0.03217708691954613,"16":0.30119889974594116,"17":1.9050160646438599,"18":-0.5480148792266846,"19":-1.9159817695617676,"20":0.05289239436388016,"21":-1.143966794013977,"22":0.6628708243370056,"23":0.6658715605735779,"24":1.2086931467056274,